=== Run information ===

Scheme:       weka.classifiers.trees.J48 -C 0.25 -M 2
Relation:     kdd_10_percent-weka.filters.unsupervised.attribute.NumericToBinary-R7-weka.filters.unsupervised.attribute.NumericToBinary-R12-weka.filters.unsupervised.attribute.NumericToBinary-R14-weka.filters.unsupervised.attribute.Remove-R20-weka.filters.unsupervised.attribute.Remove-R20-weka.filters.unsupervised.attribute.NumericToBinary-R20-weka.filters.supervised.attribute.AttributeSelection-Eweka.attributeSelection.CfsSubsetEval -P 1 -E 1-Sweka.attributeSelection.BestFirst -D 2 -N 5-weka.filters.supervised.instance.Resample-B0.0-S1-Z10.0-no-replacement-weka.filters.unsupervised.attribute.MergeManyValues-Clast-Lattack-R2-17-weka.filters.supervised.instance.SMOTE-C0-K5-P300.0-S1
Instances:    78575
Attributes:   16
              Protocol
              Service
              Flag
              src_byte
              dst_byte
              Land_binarized
              Wrong_fragment
              Urgent
              Logged_in_binarized
              count
              srv_count
              same_srv_rate
              diff_srv_rate
              dst_host_same_srv_rate
              dst_host_same_src_port_rate
              Class
Test mode:    10-fold cross-validation

=== Classifier model (full training set) ===

J48 pruned tree
------------------

count <= 84.782245
|   Flag = SF
|   |   Wrong_fragment <= 0
|   |   |   src_byte <= 52862.015444
|   |   |   |   src_byte <= 18
|   |   |   |   |   dst_host_same_src_port_rate <= 0.924683
|   |   |   |   |   |   Protocol = tcp: normal. (323.0/1.0)
|   |   |   |   |   |   Protocol = udp
|   |   |   |   |   |   |   srv_count <= 1.499815: normal. (3.0)
|   |   |   |   |   |   |   srv_count > 1.499815: attack (5.0)
|   |   |   |   |   |   Protocol = icmp: normal. (0.0)
|   |   |   |   |   dst_host_same_src_port_rate > 0.924683: attack (140.0/1.0)
|   |   |   |   src_byte > 18
|   |   |   |   |   dst_host_same_src_port_rate <= 0.999848
|   |   |   |   |   |   dst_host_same_srv_rate <= 0
|   |   |   |   |   |   |   dst_byte <= 2131.644385: normal. (3542.0/5.0)
|   |   |   |   |   |   |   dst_byte > 2131.644385
|   |   |   |   |   |   |   |   dst_byte <= 2480: attack (38.0)
|   |   |   |   |   |   |   |   dst_byte > 2480: normal. (71.0)
|   |   |   |   |   |   dst_host_same_srv_rate > 0: normal. (31219.0/7.0)
|   |   |   |   |   dst_host_same_src_port_rate > 0.999848
|   |   |   |   |   |   src_byte <= 333: normal. (1268.0/3.0)
|   |   |   |   |   |   src_byte > 333
|   |   |   |   |   |   |   dst_byte <= 1.718424: attack (61.0/1.0)
|   |   |   |   |   |   |   dst_byte > 1.718424: normal. (14.0/1.0)
|   |   |   src_byte > 52862.015444
|   |   |   |   src_byte <= 54540: attack (204.0)
|   |   |   |   src_byte > 54540
|   |   |   |   |   src_byte <= 2194619: normal. (49.0)
|   |   |   |   |   src_byte > 2194619: attack (3.0)
|   |   Wrong_fragment > 0: attack (105.0)
|   Flag = S1: normal. (3.0)
|   Flag = REJ
|   |   dst_host_same_srv_rate <= 0.167456: attack (60.0)
|   |   dst_host_same_srv_rate > 0.167456: normal. (2145.0)
|   Flag = S2: attack (3.0/1.0)
|   Flag = S0
|   |   dst_host_same_src_port_rate <= 0.004996: attack (243.0)
|   |   dst_host_same_src_port_rate > 0.004996
|   |   |   dst_host_same_srv_rate <= 0.499984: attack (22.0)
|   |   |   dst_host_same_srv_rate > 0.499984
|   |   |   |   count <= 1.499384: attack (2.0)
|   |   |   |   count > 1.499384: normal. (3.0)
|   Flag = S3: normal. (2.0)
|   Flag = RSTO
|   |   Service = http: normal. (4.0)
|   |   Service = smtp: normal. (3.0)
|   |   Service = finger: normal. (0.0)
|   |   Service = domain_u: normal. (0.0)
|   |   Service = auth: normal. (0.0)
|   |   Service = telnet: attack (6.0/1.0)
|   |   Service = ftp: normal. (0.0)
|   |   Service = eco_i: normal. (0.0)
|   |   Service = ntp_u: normal. (0.0)
|   |   Service = ecr_i: normal. (0.0)
|   |   Service = other: normal. (0.0)
|   |   Service = private: normal. (0.0)
|   |   Service = pop_3: normal. (0.0)
|   |   Service = ftp_data: normal. (0.0)
|   |   Service = rje: normal. (0.0)
|   |   Service = time: normal. (0.0)
|   |   Service = mtp: normal. (0.0)
|   |   Service = link: normal. (0.0)
|   |   Service = remote_job: normal. (0.0)
|   |   Service = gopher: normal. (0.0)
|   |   Service = ssh: normal. (0.0)
|   |   Service = name: normal. (0.0)
|   |   Service = whois: normal. (0.0)
|   |   Service = domain: normal. (0.0)
|   |   Service = login: normal. (0.0)
|   |   Service = imap4: normal. (0.0)
|   |   Service = daytime: normal. (0.0)
|   |   Service = ctf: normal. (0.0)
|   |   Service = nntp: normal. (0.0)
|   |   Service = shell: normal. (0.0)
|   |   Service = IRC: normal. (2.0)
|   |   Service = nnsp: normal. (0.0)
|   |   Service = http_443: normal. (0.0)
|   |   Service = exec: normal. (0.0)
|   |   Service = printer: normal. (0.0)
|   |   Service = efs: normal. (0.0)
|   |   Service = courier: normal. (0.0)
|   |   Service = uucp: normal. (0.0)
|   |   Service = klogin: normal. (0.0)
|   |   Service = kshell: normal. (0.0)
|   |   Service = echo: normal. (0.0)
|   |   Service = discard: normal. (0.0)
|   |   Service = systat: normal. (0.0)
|   |   Service = supdup: normal. (0.0)
|   |   Service = iso_tsap: normal. (0.0)
|   |   Service = hostnames: normal. (0.0)
|   |   Service = csnet_ns: normal. (0.0)
|   |   Service = pop_2: normal. (0.0)
|   |   Service = sunrpc: normal. (0.0)
|   |   Service = uucp_path: normal. (0.0)
|   |   Service = netbios_ns: normal. (0.0)
|   |   Service = netbios_ssn: normal. (0.0)
|   |   Service = netbios_dgm: normal. (0.0)
|   |   Service = sql_net: normal. (0.0)
|   |   Service = vmnet: normal. (0.0)
|   |   Service = bgp: normal. (0.0)
|   |   Service = Z39_50: normal. (0.0)
|   |   Service = ldap: normal. (0.0)
|   |   Service = netstat: normal. (0.0)
|   |   Service = urh_i: normal. (0.0)
|   |   Service = X11: normal. (0.0)
|   |   Service = urp_i: normal. (0.0)
|   |   Service = pm_dump: normal. (0.0)
|   |   Service = tftp_u: normal. (0.0)
|   |   Service = tim_i: normal. (0.0)
|   |   Service = red_i: normal. (0.0)
|   Flag = RSTR
|   |   dst_byte <= 7789.153739: attack (85.0)
|   |   dst_byte > 7789.153739
|   |   |   dst_host_same_srv_rate <= 0.499984: normal. (3.0)
|   |   |   dst_host_same_srv_rate > 0.499984: attack (4.0)
|   Flag = RSTOS0: normal. (0.0)
|   Flag = OTH: attack (1.0)
|   Flag = SH: attack (11.0)
count > 84.782245
|   dst_byte <= 1.456404: attack (38660.0)
|   dst_byte > 1.456404: normal. (268.0/1.0)

Number of Leaves  : 	99

Size of the tree : 	123


Time taken to build model: 1.71 seconds

=== Predictions on test data ===

inst#,actual,predicted,error,distribution,
1,1:normal.,1:normal.,,*1,0
2,1:normal.,1:normal.,,*1,0
3,1:normal.,1:normal.,,*1,0
4,1:normal.,1:normal.,,*1,0
5,1:normal.,1:normal.,,*1,0
6,1:normal.,1:normal.,,*1,0
7,1:normal.,1:normal.,,*1,0
8,1:normal.,1:normal.,,*1,0
9,1:normal.,1:normal.,,*1,0
10,1:normal.,1:normal.,,*1,0
11,1:normal.,1:normal.,,*1,0
12,1:normal.,1:normal.,,*1,0
13,1:normal.,1:normal.,,*1,0
14,1:normal.,1:normal.,,*1,0
15,1:normal.,1:normal.,,*1,0
16,1:normal.,1:normal.,,*1,0
17,1:normal.,1:normal.,,*1,0
18,1:normal.,1:normal.,,*1,0
19,1:normal.,1:normal.,,*1,0
20,1:normal.,1:normal.,,*1,0
21,1:normal.,1:normal.,,*1,0
22,1:normal.,1:normal.,,*1,0
23,1:normal.,1:normal.,,*0.998,0.002
24,1:normal.,1:normal.,,*0.998,0.002
25,1:normal.,1:normal.,,*1,0
26,1:normal.,1:normal.,,*1,0
27,1:normal.,1:normal.,,*1,0
28,1:normal.,1:normal.,,*0.998,0.002
29,1:normal.,1:normal.,,*1,0
30,1:normal.,1:normal.,,*1,0
31,1:normal.,1:normal.,,*1,0
32,1:normal.,1:normal.,,*1,0
33,1:normal.,1:normal.,,*1,0
34,1:normal.,1:normal.,,*1,0
35,1:normal.,1:normal.,,*1,0
36,1:normal.,1:normal.,,*1,0
37,1:normal.,1:normal.,,*1,0
38,1:normal.,1:normal.,,*0.998,0.002
39,1:normal.,1:normal.,,*0.998,0.002
40,1:normal.,1:normal.,,*1,0
41,1:normal.,1:normal.,,*1,0
42,1:normal.,1:normal.,,*1,0
43,1:normal.,1:normal.,,*0.998,0.002
44,1:normal.,1:normal.,,*0.997,0.003
45,1:normal.,1:normal.,,*0.998,0.002
46,1:normal.,1:normal.,,*1,0
47,1:normal.,1:normal.,,*1,0
48,1:normal.,1:normal.,,*1,0
49,1:normal.,1:normal.,,*1,0
50,1:normal.,1:normal.,,*1,0
51,1:normal.,1:normal.,,*1,0
52,1:normal.,1:normal.,,*1,0
53,1:normal.,1:normal.,,*1,0
54,1:normal.,1:normal.,,*1,0
55,1:normal.,1:normal.,,*1,0
56,1:normal.,1:normal.,,*1,0
57,1:normal.,1:normal.,,*1,0
58,1:normal.,1:normal.,,*1,0
59,1:normal.,1:normal.,,*1,0
60,1:normal.,1:normal.,,*0.998,0.002
61,1:normal.,1:normal.,,*1,0
62,1:normal.,1:normal.,,*1,0
63,1:normal.,1:normal.,,*1,0
64,1:normal.,1:normal.,,*1,0
65,1:normal.,1:normal.,,*0.998,0.002
66,1:normal.,1:normal.,,*1,0
67,1:normal.,1:normal.,,*1,0
68,1:normal.,1:normal.,,*1,0
69,1:normal.,1:normal.,,*1,0
70,1:normal.,1:normal.,,*1,0
71,1:normal.,1:normal.,,*1,0
72,1:normal.,1:normal.,,*1,0
73,1:normal.,1:normal.,,*1,0
74,1:normal.,1:normal.,,*1,0
75,1:normal.,1:normal.,,*1,0
76,1:normal.,1:normal.,,*1,0
77,1:normal.,1:normal.,,*1,0
78,1:normal.,1:normal.,,*1,0
79,1:normal.,1:normal.,,*1,0
80,1:normal.,1:normal.,,*1,0
81,1:normal.,1:normal.,,*1,0
82,1:normal.,1:normal.,,*1,0
83,1:normal.,1:normal.,,*1,0
84,1:normal.,1:normal.,,*1,0
85,1:normal.,1:normal.,,*1,0
86,1:normal.,1:normal.,,*1,0
87,1:normal.,1:normal.,,*1,0
88,1:normal.,1:normal.,,*1,0
89,1:normal.,1:normal.,,*1,0
90,1:normal.,1:normal.,,*1,0
91,1:normal.,1:normal.,,*1,0
92,1:normal.,1:normal.,,*1,0
93,1:normal.,1:normal.,,*1,0
94,1:normal.,1:normal.,,*1,0
95,1:normal.,1:normal.,,*1,0
96,1:normal.,1:normal.,,*1,0
97,1:normal.,1:normal.,,*1,0
98,1:normal.,1:normal.,,*1,0
99,1:normal.,1:normal.,,*0.998,0.002
100,1:normal.,1:normal.,,*1,0
101,1:normal.,1:normal.,,*0.998,0.002
102,1:normal.,1:normal.,,*1,0
103,1:normal.,1:normal.,,*1,0
104,1:normal.,1:normal.,,*1,0
105,1:normal.,1:normal.,,*1,0
106,1:normal.,1:normal.,,*1,0
107,1:normal.,1:normal.,,*1,0
108,1:normal.,1:normal.,,*0.998,0.002
109,1:normal.,1:normal.,,*0.998,0.002
110,1:normal.,1:normal.,,*1,0
111,1:normal.,1:normal.,,*1,0
112,1:normal.,1:normal.,,*1,0
113,1:normal.,1:normal.,,*1,0
114,1:normal.,1:normal.,,*1,0
115,1:normal.,1:normal.,,*1,0
116,1:normal.,1:normal.,,*1,0
117,1:normal.,1:normal.,,*1,0
118,1:normal.,1:normal.,,*1,0
119,1:normal.,1:normal.,,*1,0
120,1:normal.,1:normal.,,*1,0
121,1:normal.,1:normal.,,*1,0
122,1:normal.,1:normal.,,*1,0
123,1:normal.,1:normal.,,*1,0
124,1:normal.,1:normal.,,*0.998,0.002
125,1:normal.,1:normal.,,*1,0
126,1:normal.,1:normal.,,*1,0
127,1:normal.,1:normal.,,*1,0
128,1:normal.,1:normal.,,*1,0
129,1:normal.,1:normal.,,*1,0
130,1:normal.,1:normal.,,*1,0
131,1:normal.,1:normal.,,*1,0
132,1:normal.,1:normal.,,*0.998,0.002
133,1:normal.,1:normal.,,*1,0
134,1:normal.,1:normal.,,*1,0
135,1:normal.,1:normal.,,*1,0
136,1:normal.,1:normal.,,*1,0
137,1:normal.,1:normal.,,*0.998,0.002
138,1:normal.,1:normal.,,*1,0
139,1:normal.,1:normal.,,*1,0
140,1:normal.,1:normal.,,*1,0
141,1:normal.,1:normal.,,*1,0
142,1:normal.,1:normal.,,*1,0
143,1:normal.,1:normal.,,*1,0
144,1:normal.,1:normal.,,*1,0
145,1:normal.,1:normal.,,*1,0
146,1:normal.,1:normal.,,*1,0
147,1:normal.,1:normal.,,*1,0
148,1:normal.,1:normal.,,*1,0
149,1:normal.,1:normal.,,*0.998,0.002
150,1:normal.,1:normal.,,*1,0
151,1:normal.,1:normal.,,*1,0
152,1:normal.,1:normal.,,*1,0
153,1:normal.,1:normal.,,*1,0
154,1:normal.,1:normal.,,*1,0
155,1:normal.,1:normal.,,*1,0
156,1:normal.,1:normal.,,*1,0
157,1:normal.,1:normal.,,*1,0
158,1:normal.,1:normal.,,*1,0
159,1:normal.,1:normal.,,*0.998,0.002
160,1:normal.,1:normal.,,*1,0
161,1:normal.,1:normal.,,*1,0
162,1:normal.,1:normal.,,*1,0
163,1:normal.,1:normal.,,*1,0
164,1:normal.,1:normal.,,*1,0
165,1:normal.,1:normal.,,*1,0
166,1:normal.,1:normal.,,*1,0
167,1:normal.,1:normal.,,*1,0
168,1:normal.,1:normal.,,*0.998,0.002
169,1:normal.,1:normal.,,*1,0
170,1:normal.,1:normal.,,*0.998,0.002
171,1:normal.,1:normal.,,*1,0
172,1:normal.,1:normal.,,*1,0
173,1:normal.,1:normal.,,*0.998,0.002
174,1:normal.,1:normal.,,*1,0
175,1:normal.,1:normal.,,*1,0
176,1:normal.,1:normal.,,*1,0
177,1:normal.,1:normal.,,*0.998,0.002
178,1:normal.,1:normal.,,*1,0
179,1:normal.,1:normal.,,*1,0
180,1:normal.,1:normal.,,*1,0
181,1:normal.,1:normal.,,*1,0
182,1:normal.,1:normal.,,*1,0
183,1:normal.,1:normal.,,*1,0
184,1:normal.,1:normal.,,*1,0
185,1:normal.,1:normal.,,*1,0
186,1:normal.,1:normal.,,*1,0
187,1:normal.,1:normal.,,*1,0
188,1:normal.,1:normal.,,*1,0
189,1:normal.,1:normal.,,*1,0
190,1:normal.,1:normal.,,*1,0
191,1:normal.,1:normal.,,*1,0
192,1:normal.,1:normal.,,*0.998,0.002
193,1:normal.,1:normal.,,*1,0
194,1:normal.,1:normal.,,*0.998,0.002
195,1:normal.,1:normal.,,*1,0
196,1:normal.,1:normal.,,*1,0
197,1:normal.,1:normal.,,*0.998,0.002
198,1:normal.,1:normal.,,*1,0
199,1:normal.,1:normal.,,*1,0
200,1:normal.,1:normal.,,*1,0
201,1:normal.,1:normal.,,*1,0
202,1:normal.,1:normal.,,*1,0
203,1:normal.,1:normal.,,*1,0
204,1:normal.,1:normal.,,*1,0
205,1:normal.,1:normal.,,*1,0
206,1:normal.,1:normal.,,*0.998,0.002
207,1:normal.,1:normal.,,*1,0
208,1:normal.,1:normal.,,*1,0
209,1:normal.,1:normal.,,*1,0
210,1:normal.,1:normal.,,*1,0
211,1:normal.,1:normal.,,*1,0
212,1:normal.,1:normal.,,*0.996,0.004
213,1:normal.,1:normal.,,*1,0
214,1:normal.,1:normal.,,*1,0
215,1:normal.,1:normal.,,*1,0
216,1:normal.,1:normal.,,*0.997,0.003
217,1:normal.,1:normal.,,*1,0
218,1:normal.,1:normal.,,*1,0
219,1:normal.,1:normal.,,*0.998,0.002
220,1:normal.,1:normal.,,*1,0
221,1:normal.,1:normal.,,*0.998,0.002
222,1:normal.,1:normal.,,*1,0
223,1:normal.,1:normal.,,*1,0
224,1:normal.,1:normal.,,*1,0
225,1:normal.,1:normal.,,*1,0
226,1:normal.,1:normal.,,*1,0
227,1:normal.,1:normal.,,*1,0
228,1:normal.,1:normal.,,*1,0
229,1:normal.,1:normal.,,*1,0
230,1:normal.,1:normal.,,*1,0
231,1:normal.,1:normal.,,*1,0
232,1:normal.,1:normal.,,*1,0
233,1:normal.,1:normal.,,*1,0
234,1:normal.,1:normal.,,*1,0
235,1:normal.,1:normal.,,*1,0
236,1:normal.,1:normal.,,*1,0
237,1:normal.,1:normal.,,*1,0
238,1:normal.,1:normal.,,*0.998,0.002
239,1:normal.,1:normal.,,*1,0
240,1:normal.,1:normal.,,*1,0
241,1:normal.,1:normal.,,*1,0
242,1:normal.,1:normal.,,*1,0
243,1:normal.,1:normal.,,*1,0
244,1:normal.,1:normal.,,*1,0
245,1:normal.,1:normal.,,*1,0
246,1:normal.,1:normal.,,*1,0
247,1:normal.,1:normal.,,*1,0
248,1:normal.,1:normal.,,*1,0
249,1:normal.,1:normal.,,*1,0
250,1:normal.,1:normal.,,*1,0
251,1:normal.,1:normal.,,*1,0
252,1:normal.,1:normal.,,*1,0
253,1:normal.,1:normal.,,*0.997,0.003
254,1:normal.,1:normal.,,*1,0
255,1:normal.,1:normal.,,*1,0
256,1:normal.,1:normal.,,*0.998,0.002
257,1:normal.,1:normal.,,*1,0
258,1:normal.,1:normal.,,*1,0
259,1:normal.,1:normal.,,*0.998,0.002
260,1:normal.,1:normal.,,*1,0
261,1:normal.,1:normal.,,*1,0
262,1:normal.,1:normal.,,*0.998,0.002
263,1:normal.,1:normal.,,*0.997,0.003
264,1:normal.,1:normal.,,*1,0
265,1:normal.,1:normal.,,*1,0
266,1:normal.,1:normal.,,*1,0
267,1:normal.,1:normal.,,*1,0
268,1:normal.,1:normal.,,*1,0
269,1:normal.,1:normal.,,*1,0
270,1:normal.,1:normal.,,*1,0
271,1:normal.,1:normal.,,*1,0
272,1:normal.,1:normal.,,*0.996,0.004
273,1:normal.,1:normal.,,*1,0
274,1:normal.,1:normal.,,*0.998,0.002
275,1:normal.,1:normal.,,*1,0
276,1:normal.,1:normal.,,*0.998,0.002
277,1:normal.,1:normal.,,*1,0
278,1:normal.,1:normal.,,*1,0
279,1:normal.,1:normal.,,*1,0
280,1:normal.,1:normal.,,*1,0
281,1:normal.,1:normal.,,*1,0
282,1:normal.,1:normal.,,*1,0
283,1:normal.,1:normal.,,*1,0
284,1:normal.,1:normal.,,*1,0
285,1:normal.,1:normal.,,*1,0
286,1:normal.,1:normal.,,*0.998,0.002
287,1:normal.,1:normal.,,*1,0
288,1:normal.,1:normal.,,*1,0
289,1:normal.,1:normal.,,*0.998,0.002
290,1:normal.,1:normal.,,*0.998,0.002
291,1:normal.,1:normal.,,*1,0
292,1:normal.,1:normal.,,*1,0
293,1:normal.,1:normal.,,*1,0
294,1:normal.,1:normal.,,*1,0
295,1:normal.,1:normal.,,*1,0
296,1:normal.,1:normal.,,*1,0
297,1:normal.,1:normal.,,*1,0
298,1:normal.,1:normal.,,*1,0
299,1:normal.,1:normal.,,*0.998,0.002
300,1:normal.,1:normal.,,*0.998,0.002
301,1:normal.,1:normal.,,*1,0
302,1:normal.,1:normal.,,*1,0
303,1:normal.,1:normal.,,*1,0
304,1:normal.,1:normal.,,*1,0
305,1:normal.,1:normal.,,*1,0
306,1:normal.,1:normal.,,*0.998,0.002
307,1:normal.,1:normal.,,*1,0
308,1:normal.,1:normal.,,*1,0
309,1:normal.,1:normal.,,*1,0
310,1:normal.,1:normal.,,*1,0
311,1:normal.,1:normal.,,*1,0
312,1:normal.,1:normal.,,*0.998,0.002
313,1:normal.,1:normal.,,*0.996,0.004
314,1:normal.,1:normal.,,*1,0
315,1:normal.,1:normal.,,*0.923,0.077
316,1:normal.,1:normal.,,*0.998,0.002
317,1:normal.,1:normal.,,*0.998,0.002
318,1:normal.,1:normal.,,*1,0
319,1:normal.,1:normal.,,*1,0
320,1:normal.,1:normal.,,*1,0
321,1:normal.,1:normal.,,*0.996,0.004
322,1:normal.,1:normal.,,*1,0
323,1:normal.,1:normal.,,*1,0
324,1:normal.,1:normal.,,*1,0
325,1:normal.,1:normal.,,*1,0
326,1:normal.,1:normal.,,*1,0
327,1:normal.,1:normal.,,*1,0
328,1:normal.,1:normal.,,*1,0
329,1:normal.,1:normal.,,*1,0
330,1:normal.,1:normal.,,*1,0
331,1:normal.,1:normal.,,*1,0
332,1:normal.,1:normal.,,*1,0
333,1:normal.,1:normal.,,*1,0
334,1:normal.,1:normal.,,*1,0
335,1:normal.,1:normal.,,*1,0
336,1:normal.,1:normal.,,*1,0
337,1:normal.,1:normal.,,*1,0
338,1:normal.,1:normal.,,*1,0
339,1:normal.,1:normal.,,*0.998,0.002
340,1:normal.,1:normal.,,*0.996,0.004
341,1:normal.,1:normal.,,*1,0
342,1:normal.,1:normal.,,*1,0
343,1:normal.,1:normal.,,*1,0
344,1:normal.,1:normal.,,*1,0
345,1:normal.,1:normal.,,*1,0
346,1:normal.,1:normal.,,*1,0
347,1:normal.,1:normal.,,*1,0
348,1:normal.,1:normal.,,*1,0
349,1:normal.,1:normal.,,*0.998,0.002
350,1:normal.,1:normal.,,*1,0
351,1:normal.,1:normal.,,*1,0
352,1:normal.,1:normal.,,*1,0
353,1:normal.,1:normal.,,*1,0
354,1:normal.,1:normal.,,*1,0
355,1:normal.,1:normal.,,*1,0
356,1:normal.,1:normal.,,*1,0
357,1:normal.,1:normal.,,*1,0
358,1:normal.,1:normal.,,*0.998,0.002
359,1:normal.,1:normal.,,*1,0
360,1:normal.,1:normal.,,*1,0
361,1:normal.,1:normal.,,*1,0
362,1:normal.,1:normal.,,*1,0
363,1:normal.,1:normal.,,*1,0
364,1:normal.,1:normal.,,*1,0
365,1:normal.,1:normal.,,*1,0
366,1:normal.,1:normal.,,*0.998,0.002
367,1:normal.,1:normal.,,*1,0
368,1:normal.,1:normal.,,*1,0
369,1:normal.,1:normal.,,*1,0
370,1:normal.,1:normal.,,*1,0
371,1:normal.,1:normal.,,*1,0
372,1:normal.,1:normal.,,*0.998,0.002
373,1:normal.,1:normal.,,*1,0
374,1:normal.,1:normal.,,*1,0
375,1:normal.,1:normal.,,*1,0
376,1:normal.,1:normal.,,*1,0
377,1:normal.,1:normal.,,*1,0
378,1:normal.,1:normal.,,*0.998,0.002
379,1:normal.,1:normal.,,*1,0
380,1:normal.,1:normal.,,*1,0
381,1:normal.,1:normal.,,*1,0
382,1:normal.,1:normal.,,*1,0
383,1:normal.,1:normal.,,*1,0
384,1:normal.,1:normal.,,*1,0
385,1:normal.,1:normal.,,*1,0
386,1:normal.,1:normal.,,*1,0
387,1:normal.,1:normal.,,*1,0
388,1:normal.,1:normal.,,*1,0
389,1:normal.,1:normal.,,*1,0
390,1:normal.,1:normal.,,*1,0
391,1:normal.,1:normal.,,*1,0
392,1:normal.,1:normal.,,*1,0
393,1:normal.,1:normal.,,*1,0
394,1:normal.,1:normal.,,*1,0
395,1:normal.,1:normal.,,*1,0
396,1:normal.,1:normal.,,*1,0
397,1:normal.,1:normal.,,*1,0
398,1:normal.,1:normal.,,*1,0
399,1:normal.,1:normal.,,*1,0
400,1:normal.,1:normal.,,*1,0
401,1:normal.,1:normal.,,*1,0
402,1:normal.,1:normal.,,*1,0
403,1:normal.,1:normal.,,*1,0
404,1:normal.,1:normal.,,*1,0
405,1:normal.,1:normal.,,*1,0
406,1:normal.,1:normal.,,*1,0
407,1:normal.,1:normal.,,*1,0
408,1:normal.,1:normal.,,*1,0
409,1:normal.,1:normal.,,*1,0
410,1:normal.,1:normal.,,*1,0
411,1:normal.,1:normal.,,*1,0
412,1:normal.,1:normal.,,*1,0
413,1:normal.,1:normal.,,*1,0
414,1:normal.,1:normal.,,*0.998,0.002
415,1:normal.,1:normal.,,*1,0
416,1:normal.,1:normal.,,*1,0
417,1:normal.,1:normal.,,*1,0
418,1:normal.,1:normal.,,*1,0
419,1:normal.,1:normal.,,*1,0
420,1:normal.,1:normal.,,*1,0
421,1:normal.,1:normal.,,*0.998,0.002
422,1:normal.,1:normal.,,*1,0
423,1:normal.,1:normal.,,*1,0
424,1:normal.,1:normal.,,*1,0
425,1:normal.,1:normal.,,*0.998,0.002
426,1:normal.,1:normal.,,*1,0
427,1:normal.,1:normal.,,*0.998,0.002
428,1:normal.,1:normal.,,*1,0
429,1:normal.,1:normal.,,*1,0
430,1:normal.,1:normal.,,*1,0
431,1:normal.,1:normal.,,*1,0
432,1:normal.,1:normal.,,*0.998,0.002
433,1:normal.,1:normal.,,*0.998,0.002
434,1:normal.,1:normal.,,*1,0
435,1:normal.,1:normal.,,*1,0
436,1:normal.,1:normal.,,*1,0
437,1:normal.,1:normal.,,*0.998,0.002
438,1:normal.,1:normal.,,*1,0
439,1:normal.,1:normal.,,*1,0
440,1:normal.,1:normal.,,*1,0
441,1:normal.,1:normal.,,*1,0
442,1:normal.,1:normal.,,*1,0
443,1:normal.,1:normal.,,*1,0
444,1:normal.,1:normal.,,*0.998,0.002
445,1:normal.,1:normal.,,*1,0
446,1:normal.,1:normal.,,*1,0
447,1:normal.,1:normal.,,*1,0
448,1:normal.,1:normal.,,*1,0
449,1:normal.,1:normal.,,*0.998,0.002
450,1:normal.,1:normal.,,*1,0
451,1:normal.,1:normal.,,*1,0
452,1:normal.,1:normal.,,*1,0
453,1:normal.,1:normal.,,*1,0
454,1:normal.,1:normal.,,*1,0
455,1:normal.,1:normal.,,*1,0
456,1:normal.,1:normal.,,*1,0
457,1:normal.,1:normal.,,*1,0
458,1:normal.,1:normal.,,*1,0
459,1:normal.,1:normal.,,*1,0
460,1:normal.,1:normal.,,*1,0
461,1:normal.,1:normal.,,*1,0
462,1:normal.,1:normal.,,*0.996,0.004
463,1:normal.,1:normal.,,*1,0
464,1:normal.,1:normal.,,*1,0
465,1:normal.,1:normal.,,*1,0
466,1:normal.,1:normal.,,*0.998,0.002
467,1:normal.,1:normal.,,*1,0
468,1:normal.,1:normal.,,*1,0
469,1:normal.,1:normal.,,*1,0
470,1:normal.,1:normal.,,*1,0
471,1:normal.,1:normal.,,*1,0
472,1:normal.,1:normal.,,*1,0
473,1:normal.,1:normal.,,*1,0
474,1:normal.,1:normal.,,*0.998,0.002
475,1:normal.,1:normal.,,*1,0
476,1:normal.,1:normal.,,*1,0
477,1:normal.,1:normal.,,*1,0
478,1:normal.,1:normal.,,*1,0
479,1:normal.,1:normal.,,*1,0
480,1:normal.,1:normal.,,*0.998,0.002
481,1:normal.,1:normal.,,*1,0
482,1:normal.,1:normal.,,*1,0
483,1:normal.,1:normal.,,*0.998,0.002
484,1:normal.,1:normal.,,*1,0
485,1:normal.,1:normal.,,*0.998,0.002
486,1:normal.,1:normal.,,*0.998,0.002
487,1:normal.,1:normal.,,*1,0
488,1:normal.,1:normal.,,*1,0
489,1:normal.,1:normal.,,*1,0
490,1:normal.,1:normal.,,*1,0
491,1:normal.,1:normal.,,*0.998,0.002
492,1:normal.,1:normal.,,*1,0
493,1:normal.,1:normal.,,*1,0
494,1:normal.,1:normal.,,*1,0
495,1:normal.,1:normal.,,*1,0
496,1:normal.,1:normal.,,*1,0
497,1:normal.,1:normal.,,*1,0
498,1:normal.,1:normal.,,*1,0
499,1:normal.,1:normal.,,*0.998,0.002
500,1:normal.,1:normal.,,*0.996,0.004
501,1:normal.,1:normal.,,*1,0
502,1:normal.,1:normal.,,*1,0
503,1:normal.,1:normal.,,*1,0
504,1:normal.,1:normal.,,*1,0
505,1:normal.,1:normal.,,*1,0
506,1:normal.,1:normal.,,*0.998,0.002
507,1:normal.,1:normal.,,*1,0
508,1:normal.,1:normal.,,*1,0
509,1:normal.,1:normal.,,*1,0
510,1:normal.,1:normal.,,*1,0
511,1:normal.,1:normal.,,*1,0
512,1:normal.,1:normal.,,*1,0
513,1:normal.,1:normal.,,*1,0
514,1:normal.,1:normal.,,*1,0
515,1:normal.,1:normal.,,*1,0
516,1:normal.,1:normal.,,*1,0
517,1:normal.,1:normal.,,*1,0
518,1:normal.,1:normal.,,*0.998,0.002
519,1:normal.,1:normal.,,*1,0
520,1:normal.,1:normal.,,*1,0
521,1:normal.,1:normal.,,*1,0
522,1:normal.,1:normal.,,*1,0
523,1:normal.,1:normal.,,*1,0
524,1:normal.,1:normal.,,*1,0
525,1:normal.,1:normal.,,*1,0
526,1:normal.,1:normal.,,*1,0
527,1:normal.,1:normal.,,*1,0
528,1:normal.,1:normal.,,*1,0
529,1:normal.,1:normal.,,*1,0
530,1:normal.,1:normal.,,*1,0
531,1:normal.,1:normal.,,*1,0
532,1:normal.,1:normal.,,*1,0
533,1:normal.,1:normal.,,*0.998,0.002
534,1:normal.,1:normal.,,*1,0
535,1:normal.,1:normal.,,*0.998,0.002
536,1:normal.,1:normal.,,*1,0
537,1:normal.,1:normal.,,*1,0
538,1:normal.,1:normal.,,*0.998,0.002
539,1:normal.,1:normal.,,*1,0
540,1:normal.,1:normal.,,*1,0
541,1:normal.,1:normal.,,*1,0
542,1:normal.,1:normal.,,*1,0
543,1:normal.,1:normal.,,*0.998,0.002
544,1:normal.,1:normal.,,*1,0
545,1:normal.,1:normal.,,*0.998,0.002
546,1:normal.,1:normal.,,*1,0
547,1:normal.,1:normal.,,*1,0
548,1:normal.,1:normal.,,*1,0
549,1:normal.,1:normal.,,*1,0
550,1:normal.,1:normal.,,*1,0
551,1:normal.,1:normal.,,*1,0
552,1:normal.,1:normal.,,*1,0
553,1:normal.,1:normal.,,*1,0
554,1:normal.,1:normal.,,*1,0
555,1:normal.,1:normal.,,*1,0
556,1:normal.,1:normal.,,*0.998,0.002
557,1:normal.,1:normal.,,*0.998,0.002
558,1:normal.,1:normal.,,*0.998,0.002
559,1:normal.,1:normal.,,*1,0
560,1:normal.,1:normal.,,*1,0
561,1:normal.,1:normal.,,*1,0
562,1:normal.,1:normal.,,*1,0
563,1:normal.,1:normal.,,*1,0
564,1:normal.,1:normal.,,*1,0
565,1:normal.,1:normal.,,*1,0
566,1:normal.,1:normal.,,*0.998,0.002
567,1:normal.,1:normal.,,*1,0
568,1:normal.,1:normal.,,*0.998,0.002
569,1:normal.,1:normal.,,*1,0
570,1:normal.,1:normal.,,*1,0
571,1:normal.,1:normal.,,*1,0
572,1:normal.,1:normal.,,*1,0
573,1:normal.,1:normal.,,*1,0
574,1:normal.,1:normal.,,*1,0
575,1:normal.,1:normal.,,*1,0
576,1:normal.,1:normal.,,*1,0
577,1:normal.,1:normal.,,*1,0
578,1:normal.,1:normal.,,*0.998,0.002
579,1:normal.,1:normal.,,*1,0
580,1:normal.,1:normal.,,*1,0
581,1:normal.,1:normal.,,*1,0
582,1:normal.,1:normal.,,*1,0
583,1:normal.,1:normal.,,*0.998,0.002
584,1:normal.,1:normal.,,*1,0
585,1:normal.,1:normal.,,*1,0
586,1:normal.,1:normal.,,*1,0
587,1:normal.,1:normal.,,*0.998,0.002
588,1:normal.,1:normal.,,*1,0
589,1:normal.,1:normal.,,*1,0
590,1:normal.,1:normal.,,*1,0
591,1:normal.,1:normal.,,*1,0
592,1:normal.,1:normal.,,*1,0
593,1:normal.,1:normal.,,*0.998,0.002
594,1:normal.,1:normal.,,*1,0
595,1:normal.,1:normal.,,*1,0
596,1:normal.,1:normal.,,*1,0
597,1:normal.,1:normal.,,*1,0
598,1:normal.,1:normal.,,*1,0
599,1:normal.,1:normal.,,*1,0
600,1:normal.,1:normal.,,*1,0
601,1:normal.,1:normal.,,*1,0
602,1:normal.,1:normal.,,*1,0
603,1:normal.,1:normal.,,*1,0
604,1:normal.,1:normal.,,*1,0
605,1:normal.,1:normal.,,*1,0
606,1:normal.,1:normal.,,*0.998,0.002
607,1:normal.,1:normal.,,*1,0
608,1:normal.,1:normal.,,*0.998,0.002
609,1:normal.,1:normal.,,*1,0
610,1:normal.,1:normal.,,*1,0
611,1:normal.,1:normal.,,*1,0
612,1:normal.,1:normal.,,*1,0
613,1:normal.,1:normal.,,*1,0
614,1:normal.,1:normal.,,*1,0
615,1:normal.,1:normal.,,*1,0
616,1:normal.,1:normal.,,*1,0
617,1:normal.,1:normal.,,*1,0
618,1:normal.,1:normal.,,*1,0
619,1:normal.,1:normal.,,*1,0
620,1:normal.,1:normal.,,*1,0
621,1:normal.,1:normal.,,*1,0
622,1:normal.,1:normal.,,*1,0
623,1:normal.,1:normal.,,*1,0
624,1:normal.,1:normal.,,*1,0
625,1:normal.,1:normal.,,*1,0
626,1:normal.,1:normal.,,*1,0
627,1:normal.,1:normal.,,*0.998,0.002
628,1:normal.,1:normal.,,*1,0
629,1:normal.,1:normal.,,*1,0
630,1:normal.,1:normal.,,*1,0
631,1:normal.,1:normal.,,*1,0
632,1:normal.,1:normal.,,*1,0
633,1:normal.,1:normal.,,*1,0
634,1:normal.,1:normal.,,*1,0
635,1:normal.,1:normal.,,*0.998,0.002
636,1:normal.,1:normal.,,*0.998,0.002
637,1:normal.,1:normal.,,*1,0
638,1:normal.,1:normal.,,*1,0
639,1:normal.,1:normal.,,*1,0
640,1:normal.,1:normal.,,*0.998,0.002
641,1:normal.,1:normal.,,*1,0
642,1:normal.,1:normal.,,*1,0
643,1:normal.,1:normal.,,*1,0
644,1:normal.,1:normal.,,*1,0
645,1:normal.,1:normal.,,*0.998,0.002
646,1:normal.,1:normal.,,*1,0
647,1:normal.,1:normal.,,*1,0
648,1:normal.,1:normal.,,*1,0
649,1:normal.,1:normal.,,*1,0
650,1:normal.,1:normal.,,*1,0
651,1:normal.,1:normal.,,*1,0
652,1:normal.,1:normal.,,*1,0
653,1:normal.,1:normal.,,*1,0
654,1:normal.,1:normal.,,*1,0
655,1:normal.,1:normal.,,*1,0
656,1:normal.,1:normal.,,*1,0
657,1:normal.,1:normal.,,*1,0
658,1:normal.,1:normal.,,*1,0
659,1:normal.,1:normal.,,*0.998,0.002
660,1:normal.,1:normal.,,*1,0
661,1:normal.,1:normal.,,*1,0
662,1:normal.,1:normal.,,*0.998,0.002
663,1:normal.,1:normal.,,*0.998,0.002
664,1:normal.,1:normal.,,*0.998,0.002
665,1:normal.,1:normal.,,*1,0
666,1:normal.,1:normal.,,*1,0
667,1:normal.,1:normal.,,*1,0
668,1:normal.,1:normal.,,*1,0
669,1:normal.,1:normal.,,*1,0
670,1:normal.,1:normal.,,*1,0
671,1:normal.,1:normal.,,*1,0
672,1:normal.,1:normal.,,*1,0
673,1:normal.,1:normal.,,*1,0
674,1:normal.,1:normal.,,*1,0
675,1:normal.,1:normal.,,*1,0
676,1:normal.,1:normal.,,*1,0
677,1:normal.,1:normal.,,*1,0
678,1:normal.,1:normal.,,*1,0
679,1:normal.,1:normal.,,*1,0
680,1:normal.,1:normal.,,*1,0
681,1:normal.,1:normal.,,*1,0
682,1:normal.,1:normal.,,*1,0
683,1:normal.,1:normal.,,*1,0
684,1:normal.,1:normal.,,*1,0
685,1:normal.,1:normal.,,*0.998,0.002
686,1:normal.,1:normal.,,*1,0
687,1:normal.,1:normal.,,*1,0
688,1:normal.,1:normal.,,*1,0
689,1:normal.,1:normal.,,*1,0
690,1:normal.,1:normal.,,*1,0
691,1:normal.,1:normal.,,*1,0
692,1:normal.,1:normal.,,*1,0
693,1:normal.,1:normal.,,*1,0
694,1:normal.,1:normal.,,*1,0
695,1:normal.,1:normal.,,*1,0
696,1:normal.,1:normal.,,*1,0
697,1:normal.,1:normal.,,*1,0
698,1:normal.,1:normal.,,*1,0
699,1:normal.,1:normal.,,*0.997,0.003
700,1:normal.,1:normal.,,*1,0
701,1:normal.,1:normal.,,*1,0
702,1:normal.,1:normal.,,*1,0
703,1:normal.,1:normal.,,*1,0
704,1:normal.,1:normal.,,*1,0
705,1:normal.,1:normal.,,*1,0
706,1:normal.,1:normal.,,*1,0
707,1:normal.,1:normal.,,*0.998,0.002
708,1:normal.,1:normal.,,*1,0
709,1:normal.,1:normal.,,*1,0
710,1:normal.,1:normal.,,*1,0
711,1:normal.,1:normal.,,*1,0
712,1:normal.,1:normal.,,*1,0
713,1:normal.,1:normal.,,*1,0
714,1:normal.,1:normal.,,*1,0
715,1:normal.,1:normal.,,*1,0
716,1:normal.,1:normal.,,*1,0
717,1:normal.,1:normal.,,*1,0
718,1:normal.,1:normal.,,*1,0
719,1:normal.,1:normal.,,*1,0
720,1:normal.,1:normal.,,*1,0
721,1:normal.,1:normal.,,*1,0
722,1:normal.,1:normal.,,*1,0
723,1:normal.,1:normal.,,*1,0
724,1:normal.,1:normal.,,*1,0
725,1:normal.,1:normal.,,*1,0
726,1:normal.,1:normal.,,*1,0
727,1:normal.,1:normal.,,*1,0
728,1:normal.,1:normal.,,*1,0
729,1:normal.,1:normal.,,*1,0
730,1:normal.,1:normal.,,*1,0
731,1:normal.,1:normal.,,*1,0
732,1:normal.,1:normal.,,*1,0
733,1:normal.,1:normal.,,*1,0
734,1:normal.,1:normal.,,*1,0
735,1:normal.,1:normal.,,*1,0
736,1:normal.,1:normal.,,*1,0
737,1:normal.,1:normal.,,*1,0
738,1:normal.,1:normal.,,*1,0
739,1:normal.,1:normal.,,*1,0
740,1:normal.,1:normal.,,*1,0
741,1:normal.,1:normal.,,*0.997,0.003
742,1:normal.,1:normal.,,*1,0
743,1:normal.,1:normal.,,*1,0
744,1:normal.,1:normal.,,*1,0
745,1:normal.,1:normal.,,*1,0
746,1:normal.,1:normal.,,*1,0
747,1:normal.,1:normal.,,*1,0
748,1:normal.,1:normal.,,*1,0
749,1:normal.,1:normal.,,*1,0
750,1:normal.,1:normal.,,*1,0
751,1:normal.,1:normal.,,*1,0
752,1:normal.,1:normal.,,*1,0
753,1:normal.,1:normal.,,*1,0
754,1:normal.,1:normal.,,*1,0
755,1:normal.,1:normal.,,*1,0
756,1:normal.,1:normal.,,*0.998,0.002
757,1:normal.,1:normal.,,*0.998,0.002
758,1:normal.,1:normal.,,*1,0
759,1:normal.,1:normal.,,*1,0
760,1:normal.,1:normal.,,*1,0
761,1:normal.,1:normal.,,*1,0
762,1:normal.,1:normal.,,*1,0
763,1:normal.,1:normal.,,*1,0
764,1:normal.,1:normal.,,*1,0
765,1:normal.,1:normal.,,*0.997,0.003
766,1:normal.,1:normal.,,*1,0
767,1:normal.,1:normal.,,*1,0
768,1:normal.,1:normal.,,*1,0
769,1:normal.,1:normal.,,*1,0
770,1:normal.,1:normal.,,*1,0
771,1:normal.,1:normal.,,*1,0
772,1:normal.,1:normal.,,*1,0
773,1:normal.,1:normal.,,*1,0
774,1:normal.,1:normal.,,*1,0
775,1:normal.,1:normal.,,*0.998,0.002
776,1:normal.,1:normal.,,*1,0
777,1:normal.,1:normal.,,*1,0
778,1:normal.,1:normal.,,*1,0
779,1:normal.,1:normal.,,*1,0
780,1:normal.,1:normal.,,*1,0
781,1:normal.,1:normal.,,*1,0
782,1:normal.,1:normal.,,*1,0
783,1:normal.,1:normal.,,*1,0
784,1:normal.,1:normal.,,*0.998,0.002
785,1:normal.,1:normal.,,*1,0
786,1:normal.,1:normal.,,*1,0
787,1:normal.,1:normal.,,*0.998,0.002
788,1:normal.,1:normal.,,*0.998,0.002
789,1:normal.,1:normal.,,*1,0
790,1:normal.,1:normal.,,*1,0
791,1:normal.,1:normal.,,*1,0
792,1:normal.,1:normal.,,*1,0
793,1:normal.,1:normal.,,*1,0
794,1:normal.,1:normal.,,*1,0
795,1:normal.,1:normal.,,*1,0
796,1:normal.,1:normal.,,*1,0
797,1:normal.,1:normal.,,*1,0
798,1:normal.,1:normal.,,*1,0
799,1:normal.,1:normal.,,*0.998,0.002
800,1:normal.,1:normal.,,*0.998,0.002
801,1:normal.,1:normal.,,*1,0
802,1:normal.,1:normal.,,*1,0
803,1:normal.,1:normal.,,*1,0
804,1:normal.,1:normal.,,*1,0
805,1:normal.,1:normal.,,*1,0
806,1:normal.,1:normal.,,*1,0
807,1:normal.,1:normal.,,*1,0
808,1:normal.,1:normal.,,*1,0
809,1:normal.,1:normal.,,*1,0
810,1:normal.,1:normal.,,*1,0
811,1:normal.,1:normal.,,*1,0
812,1:normal.,1:normal.,,*0.998,0.002
813,1:normal.,1:normal.,,*0.998,0.002
814,1:normal.,1:normal.,,*1,0
815,1:normal.,1:normal.,,*1,0
816,1:normal.,1:normal.,,*1,0
817,1:normal.,1:normal.,,*0.998,0.002
818,1:normal.,1:normal.,,*1,0
819,1:normal.,1:normal.,,*0.998,0.002
820,1:normal.,1:normal.,,*1,0
821,1:normal.,1:normal.,,*1,0
822,1:normal.,1:normal.,,*0.997,0.003
823,1:normal.,1:normal.,,*1,0
824,1:normal.,1:normal.,,*1,0
825,1:normal.,1:normal.,,*1,0
826,1:normal.,1:normal.,,*1,0
827,1:normal.,1:normal.,,*1,0
828,1:normal.,1:normal.,,*1,0
829,1:normal.,1:normal.,,*0.998,0.002
830,1:normal.,1:normal.,,*1,0
831,1:normal.,1:normal.,,*1,0
832,1:normal.,1:normal.,,*1,0
833,1:normal.,1:normal.,,*1,0
834,1:normal.,1:normal.,,*1,0
835,1:normal.,1:normal.,,*1,0
836,1:normal.,1:normal.,,*1,0
837,1:normal.,1:normal.,,*1,0
838,1:normal.,1:normal.,,*1,0
839,1:normal.,1:normal.,,*1,0
840,1:normal.,1:normal.,,*1,0
841,1:normal.,1:normal.,,*1,0
842,1:normal.,1:normal.,,*0.998,0.002
843,1:normal.,1:normal.,,*1,0
844,1:normal.,1:normal.,,*1,0
845,1:normal.,1:normal.,,*1,0
846,1:normal.,1:normal.,,*1,0
847,1:normal.,1:normal.,,*1,0
848,1:normal.,1:normal.,,*1,0
849,1:normal.,1:normal.,,*0.998,0.002
850,1:normal.,1:normal.,,*1,0
851,1:normal.,1:normal.,,*1,0
852,1:normal.,1:normal.,,*1,0
853,1:normal.,1:normal.,,*0.998,0.002
854,1:normal.,1:normal.,,*1,0
855,1:normal.,1:normal.,,*1,0
856,1:normal.,1:normal.,,*1,0
857,1:normal.,1:normal.,,*1,0
858,1:normal.,1:normal.,,*1,0
859,1:normal.,1:normal.,,*1,0
860,1:normal.,1:normal.,,*1,0
861,1:normal.,1:normal.,,*1,0
862,1:normal.,1:normal.,,*1,0
863,1:normal.,1:normal.,,*1,0
864,1:normal.,1:normal.,,*1,0
865,1:normal.,1:normal.,,*1,0
866,1:normal.,1:normal.,,*1,0
867,1:normal.,1:normal.,,*0.998,0.002
868,1:normal.,1:normal.,,*0.998,0.002
869,1:normal.,1:normal.,,*1,0
870,1:normal.,1:normal.,,*1,0
871,1:normal.,1:normal.,,*1,0
872,1:normal.,1:normal.,,*1,0
873,1:normal.,1:normal.,,*1,0
874,1:normal.,1:normal.,,*1,0
875,1:normal.,1:normal.,,*1,0
876,1:normal.,1:normal.,,*1,0
877,1:normal.,1:normal.,,*1,0
878,1:normal.,1:normal.,,*1,0
879,1:normal.,1:normal.,,*1,0
880,1:normal.,1:normal.,,*1,0
881,1:normal.,1:normal.,,*1,0
882,1:normal.,1:normal.,,*1,0
883,1:normal.,1:normal.,,*1,0
884,1:normal.,1:normal.,,*1,0
885,1:normal.,1:normal.,,*0.998,0.002
886,1:normal.,1:normal.,,*1,0
887,1:normal.,1:normal.,,*1,0
888,1:normal.,1:normal.,,*1,0
889,1:normal.,1:normal.,,*1,0
890,1:normal.,1:normal.,,*1,0
891,1:normal.,1:normal.,,*1,0
892,1:normal.,1:normal.,,*0.998,0.002
893,1:normal.,1:normal.,,*1,0
894,1:normal.,1:normal.,,*1,0
895,1:normal.,1:normal.,,*1,0
896,1:normal.,1:normal.,,*1,0
897,1:normal.,1:normal.,,*1,0
898,1:normal.,1:normal.,,*1,0
899,1:normal.,1:normal.,,*1,0
900,1:normal.,1:normal.,,*1,0
901,1:normal.,1:normal.,,*0.998,0.002
902,1:normal.,1:normal.,,*1,0
903,1:normal.,1:normal.,,*1,0
904,1:normal.,1:normal.,,*1,0
905,1:normal.,1:normal.,,*1,0
906,1:normal.,1:normal.,,*1,0
907,1:normal.,1:normal.,,*0.998,0.002
908,1:normal.,1:normal.,,*0.998,0.002
909,1:normal.,1:normal.,,*1,0
910,1:normal.,1:normal.,,*1,0
911,1:normal.,1:normal.,,*1,0
912,1:normal.,1:normal.,,*1,0
913,1:normal.,1:normal.,,*1,0
914,1:normal.,1:normal.,,*1,0
915,1:normal.,1:normal.,,*1,0
916,1:normal.,1:normal.,,*0.998,0.002
917,1:normal.,1:normal.,,*1,0
918,1:normal.,1:normal.,,*1,0
919,1:normal.,1:normal.,,*1,0
920,1:normal.,1:normal.,,*1,0
921,1:normal.,1:normal.,,*1,0
922,1:normal.,1:normal.,,*1,0
923,1:normal.,1:normal.,,*1,0
924,1:normal.,1:normal.,,*1,0
925,1:normal.,1:normal.,,*1,0
926,1:normal.,1:normal.,,*1,0
927,1:normal.,1:normal.,,*0.998,0.002
928,1:normal.,1:normal.,,*1,0
929,1:normal.,1:normal.,,*1,0
930,1:normal.,1:normal.,,*1,0
931,1:normal.,1:normal.,,*1,0
932,1:normal.,1:normal.,,*1,0
933,1:normal.,1:normal.,,*1,0
934,1:normal.,1:normal.,,*1,0
935,1:normal.,1:normal.,,*1,0
936,1:normal.,1:normal.,,*1,0
937,1:normal.,1:normal.,,*1,0
938,1:normal.,1:normal.,,*1,0
939,1:normal.,1:normal.,,*1,0
940,1:normal.,1:normal.,,*1,0
941,1:normal.,1:normal.,,*1,0
942,1:normal.,1:normal.,,*1,0
943,1:normal.,1:normal.,,*1,0
944,1:normal.,1:normal.,,*1,0
945,1:normal.,1:normal.,,*1,0
946,1:normal.,1:normal.,,*1,0
947,1:normal.,1:normal.,,*1,0
948,1:normal.,1:normal.,,*1,0
949,1:normal.,1:normal.,,*1,0
950,1:normal.,1:normal.,,*1,0
951,1:normal.,1:normal.,,*1,0
952,1:normal.,1:normal.,,*1,0
953,1:normal.,1:normal.,,*1,0
954,1:normal.,1:normal.,,*1,0
955,1:normal.,1:normal.,,*1,0
956,1:normal.,1:normal.,,*1,0
957,1:normal.,1:normal.,,*1,0
958,1:normal.,1:normal.,,*1,0
959,1:normal.,1:normal.,,*1,0
960,1:normal.,1:normal.,,*0.998,0.002
961,1:normal.,1:normal.,,*1,0
962,1:normal.,1:normal.,,*0.998,0.002
963,1:normal.,1:normal.,,*1,0
964,1:normal.,1:normal.,,*1,0
965,1:normal.,1:normal.,,*1,0
966,1:normal.,1:normal.,,*1,0
967,1:normal.,1:normal.,,*0.998,0.002
968,1:normal.,1:normal.,,*1,0
969,1:normal.,1:normal.,,*0.998,0.002
970,1:normal.,1:normal.,,*1,0
971,1:normal.,1:normal.,,*1,0
972,1:normal.,1:normal.,,*0.998,0.002
973,1:normal.,1:normal.,,*1,0
974,1:normal.,1:normal.,,*1,0
975,1:normal.,1:normal.,,*1,0
976,1:normal.,1:normal.,,*1,0
977,1:normal.,1:normal.,,*1,0
978,1:normal.,1:normal.,,*1,0
979,1:normal.,1:normal.,,*1,0
980,1:normal.,1:normal.,,*1,0
981,1:normal.,1:normal.,,*1,0
982,1:normal.,1:normal.,,*1,0
983,1:normal.,1:normal.,,*0.998,0.002
984,1:normal.,1:normal.,,*0.998,0.002
985,1:normal.,1:normal.,,*1,0
986,1:normal.,1:normal.,,*1,0
987,1:normal.,1:normal.,,*1,0
988,1:normal.,1:normal.,,*1,0
989,1:normal.,1:normal.,,*1,0
990,1:normal.,1:normal.,,*1,0
991,1:normal.,1:normal.,,*1,0
992,1:normal.,1:normal.,,*1,0
993,1:normal.,1:normal.,,*1,0
994,1:normal.,1:normal.,,*1,0
995,1:normal.,1:normal.,,*1,0
996,1:normal.,1:normal.,,*1,0
997,1:normal.,1:normal.,,*1,0
998,1:normal.,1:normal.,,*1,0
999,1:normal.,1:normal.,,*0.998,0.002
1000,1:normal.,1:normal.,,*1,0
1001,1:normal.,1:normal.,,*1,0
1002,1:normal.,1:normal.,,*1,0
1003,1:normal.,1:normal.,,*0.998,0.002
1004,1:normal.,1:normal.,,*1,0
1005,1:normal.,1:normal.,,*1,0
1006,1:normal.,1:normal.,,*1,0
1007,1:normal.,1:normal.,,*1,0
1008,1:normal.,1:normal.,,*1,0
1009,1:normal.,1:normal.,,*1,0
1010,1:normal.,1:normal.,,*0.998,0.002
1011,1:normal.,1:normal.,,*1,0
1012,1:normal.,1:normal.,,*1,0
1013,1:normal.,1:normal.,,*1,0
1014,1:normal.,1:normal.,,*1,0
1015,1:normal.,1:normal.,,*1,0
1016,1:normal.,1:normal.,,*1,0
1017,1:normal.,1:normal.,,*1,0
1018,1:normal.,1:normal.,,*1,0
1019,1:normal.,1:normal.,,*1,0
1020,1:normal.,1:normal.,,*1,0
1021,1:normal.,1:normal.,,*1,0
1022,1:normal.,1:normal.,,*1,0
1023,1:normal.,1:normal.,,*1,0
1024,1:normal.,1:normal.,,*1,0
1025,1:normal.,1:normal.,,*1,0
1026,1:normal.,1:normal.,,*1,0
1027,1:normal.,1:normal.,,*1,0
1028,1:normal.,1:normal.,,*1,0
1029,1:normal.,1:normal.,,*0.996,0.004
1030,1:normal.,1:normal.,,*1,0
1031,1:normal.,1:normal.,,*1,0
1032,1:normal.,1:normal.,,*1,0
1033,1:normal.,1:normal.,,*1,0
1034,1:normal.,1:normal.,,*1,0
1035,1:normal.,1:normal.,,*1,0
1036,1:normal.,1:normal.,,*1,0
1037,1:normal.,1:normal.,,*1,0
1038,1:normal.,1:normal.,,*1,0
1039,1:normal.,1:normal.,,*1,0
1040,1:normal.,1:normal.,,*1,0
1041,1:normal.,1:normal.,,*1,0
1042,1:normal.,1:normal.,,*1,0
1043,1:normal.,1:normal.,,*1,0
1044,1:normal.,1:normal.,,*0.998,0.002
1045,1:normal.,1:normal.,,*1,0
1046,1:normal.,1:normal.,,*1,0
1047,1:normal.,1:normal.,,*1,0
1048,1:normal.,1:normal.,,*1,0
1049,1:normal.,1:normal.,,*1,0
1050,1:normal.,1:normal.,,*1,0
1051,1:normal.,1:normal.,,*1,0
1052,1:normal.,1:normal.,,*1,0
1053,1:normal.,1:normal.,,*1,0
1054,1:normal.,1:normal.,,*1,0
1055,1:normal.,1:normal.,,*1,0
1056,1:normal.,1:normal.,,*1,0
1057,1:normal.,1:normal.,,*0.998,0.002
1058,1:normal.,1:normal.,,*0.998,0.002
1059,1:normal.,1:normal.,,*1,0
1060,1:normal.,1:normal.,,*1,0
1061,1:normal.,1:normal.,,*1,0
1062,1:normal.,1:normal.,,*1,0
1063,1:normal.,1:normal.,,*1,0
1064,1:normal.,1:normal.,,*0.998,0.002
1065,1:normal.,1:normal.,,*1,0
1066,1:normal.,1:normal.,,*1,0
1067,1:normal.,1:normal.,,*1,0
1068,1:normal.,1:normal.,,*1,0
1069,1:normal.,1:normal.,,*0.998,0.002
1070,1:normal.,1:normal.,,*0.998,0.002
1071,1:normal.,1:normal.,,*1,0
1072,1:normal.,1:normal.,,*1,0
1073,1:normal.,1:normal.,,*0.998,0.002
1074,1:normal.,1:normal.,,*1,0
1075,1:normal.,1:normal.,,*1,0
1076,1:normal.,1:normal.,,*1,0
1077,1:normal.,1:normal.,,*1,0
1078,1:normal.,1:normal.,,*1,0
1079,1:normal.,1:normal.,,*0.998,0.002
1080,1:normal.,1:normal.,,*1,0
1081,1:normal.,1:normal.,,*1,0
1082,1:normal.,1:normal.,,*1,0
1083,1:normal.,1:normal.,,*1,0
1084,1:normal.,1:normal.,,*1,0
1085,1:normal.,1:normal.,,*1,0
1086,1:normal.,1:normal.,,*1,0
1087,1:normal.,1:normal.,,*1,0
1088,1:normal.,1:normal.,,*1,0
1089,1:normal.,1:normal.,,*1,0
1090,1:normal.,1:normal.,,*1,0
1091,1:normal.,1:normal.,,*1,0
1092,1:normal.,1:normal.,,*1,0
1093,1:normal.,1:normal.,,*0.998,0.002
1094,1:normal.,1:normal.,,*1,0
1095,1:normal.,1:normal.,,*1,0
1096,1:normal.,1:normal.,,*1,0
1097,1:normal.,1:normal.,,*1,0
1098,1:normal.,1:normal.,,*1,0
1099,1:normal.,1:normal.,,*1,0
1100,1:normal.,1:normal.,,*1,0
1101,1:normal.,1:normal.,,*0.998,0.002
1102,1:normal.,1:normal.,,*1,0
1103,1:normal.,1:normal.,,*1,0
1104,1:normal.,1:normal.,,*1,0
1105,1:normal.,1:normal.,,*1,0
1106,1:normal.,1:normal.,,*1,0
1107,1:normal.,1:normal.,,*0.998,0.002
1108,1:normal.,1:normal.,,*1,0
1109,1:normal.,1:normal.,,*1,0
1110,1:normal.,1:normal.,,*1,0
1111,1:normal.,1:normal.,,*1,0
1112,1:normal.,1:normal.,,*1,0
1113,1:normal.,1:normal.,,*1,0
1114,1:normal.,1:normal.,,*0.998,0.002
1115,1:normal.,1:normal.,,*1,0
1116,1:normal.,1:normal.,,*1,0
1117,1:normal.,1:normal.,,*0.998,0.002
1118,1:normal.,1:normal.,,*1,0
1119,1:normal.,1:normal.,,*1,0
1120,1:normal.,1:normal.,,*1,0
1121,1:normal.,1:normal.,,*1,0
1122,1:normal.,1:normal.,,*0.998,0.002
1123,1:normal.,1:normal.,,*1,0
1124,1:normal.,1:normal.,,*1,0
1125,1:normal.,1:normal.,,*1,0
1126,1:normal.,1:normal.,,*0.998,0.002
1127,1:normal.,1:normal.,,*0.998,0.002
1128,1:normal.,1:normal.,,*1,0
1129,1:normal.,1:normal.,,*1,0
1130,1:normal.,1:normal.,,*1,0
1131,1:normal.,1:normal.,,*1,0
1132,1:normal.,1:normal.,,*1,0
1133,1:normal.,1:normal.,,*1,0
1134,1:normal.,1:normal.,,*1,0
1135,1:normal.,1:normal.,,*1,0
1136,1:normal.,1:normal.,,*1,0
1137,1:normal.,1:normal.,,*1,0
1138,1:normal.,1:normal.,,*1,0
1139,1:normal.,1:normal.,,*0.998,0.002
1140,1:normal.,1:normal.,,*1,0
1141,1:normal.,1:normal.,,*1,0
1142,1:normal.,1:normal.,,*1,0
1143,1:normal.,1:normal.,,*0.998,0.002
1144,1:normal.,1:normal.,,*1,0
1145,1:normal.,1:normal.,,*0.998,0.002
1146,1:normal.,1:normal.,,*1,0
1147,1:normal.,1:normal.,,*1,0
1148,1:normal.,1:normal.,,*1,0
1149,1:normal.,1:normal.,,*1,0
1150,1:normal.,1:normal.,,*1,0
1151,1:normal.,1:normal.,,*1,0
1152,1:normal.,1:normal.,,*1,0
1153,1:normal.,1:normal.,,*1,0
1154,1:normal.,1:normal.,,*1,0
1155,1:normal.,1:normal.,,*1,0
1156,1:normal.,1:normal.,,*1,0
1157,1:normal.,1:normal.,,*1,0
1158,1:normal.,1:normal.,,*0.998,0.002
1159,1:normal.,1:normal.,,*1,0
1160,1:normal.,1:normal.,,*1,0
1161,1:normal.,1:normal.,,*1,0
1162,1:normal.,1:normal.,,*0.998,0.002
1163,1:normal.,1:normal.,,*1,0
1164,1:normal.,1:normal.,,*1,0
1165,1:normal.,1:normal.,,*1,0
1166,1:normal.,1:normal.,,*1,0
1167,1:normal.,1:normal.,,*1,0
1168,1:normal.,1:normal.,,*1,0
1169,1:normal.,1:normal.,,*1,0
1170,1:normal.,1:normal.,,*1,0
1171,1:normal.,1:normal.,,*1,0
1172,1:normal.,1:normal.,,*1,0
1173,1:normal.,1:normal.,,*1,0
1174,1:normal.,1:normal.,,*1,0
1175,1:normal.,1:normal.,,*1,0
1176,1:normal.,1:normal.,,*1,0
1177,1:normal.,1:normal.,,*1,0
1178,1:normal.,1:normal.,,*1,0
1179,1:normal.,1:normal.,,*1,0
1180,1:normal.,1:normal.,,*1,0
1181,1:normal.,1:normal.,,*1,0
1182,1:normal.,1:normal.,,*1,0
1183,1:normal.,1:normal.,,*1,0
1184,1:normal.,1:normal.,,*1,0
1185,1:normal.,1:normal.,,*1,0
1186,1:normal.,1:normal.,,*0.998,0.002
1187,1:normal.,1:normal.,,*1,0
1188,1:normal.,1:normal.,,*1,0
1189,1:normal.,1:normal.,,*1,0
1190,1:normal.,1:normal.,,*0.998,0.002
1191,1:normal.,1:normal.,,*1,0
1192,1:normal.,1:normal.,,*1,0
1193,1:normal.,1:normal.,,*1,0
1194,1:normal.,1:normal.,,*1,0
1195,1:normal.,1:normal.,,*1,0
1196,1:normal.,1:normal.,,*1,0
1197,1:normal.,1:normal.,,*1,0
1198,1:normal.,1:normal.,,*1,0
1199,1:normal.,1:normal.,,*0.998,0.002
1200,1:normal.,1:normal.,,*1,0
1201,1:normal.,1:normal.,,*1,0
1202,1:normal.,1:normal.,,*1,0
1203,1:normal.,1:normal.,,*1,0
1204,1:normal.,1:normal.,,*1,0
1205,1:normal.,1:normal.,,*1,0
1206,1:normal.,1:normal.,,*0.998,0.002
1207,1:normal.,1:normal.,,*1,0
1208,1:normal.,1:normal.,,*1,0
1209,1:normal.,1:normal.,,*1,0
1210,1:normal.,1:normal.,,*1,0
1211,1:normal.,1:normal.,,*0.998,0.002
1212,1:normal.,1:normal.,,*1,0
1213,1:normal.,1:normal.,,*1,0
1214,1:normal.,1:normal.,,*1,0
1215,1:normal.,1:normal.,,*0.998,0.002
1216,1:normal.,1:normal.,,*1,0
1217,1:normal.,1:normal.,,*1,0
1218,1:normal.,1:normal.,,*1,0
1219,1:normal.,1:normal.,,*1,0
1220,1:normal.,1:normal.,,*1,0
1221,1:normal.,1:normal.,,*0.996,0.004
1222,1:normal.,1:normal.,,*1,0
1223,1:normal.,1:normal.,,*1,0
1224,1:normal.,1:normal.,,*1,0
1225,1:normal.,1:normal.,,*1,0
1226,1:normal.,1:normal.,,*1,0
1227,1:normal.,1:normal.,,*1,0
1228,1:normal.,1:normal.,,*1,0
1229,1:normal.,1:normal.,,*1,0
1230,1:normal.,1:normal.,,*0.998,0.002
1231,1:normal.,1:normal.,,*1,0
1232,1:normal.,1:normal.,,*1,0
1233,1:normal.,1:normal.,,*1,0
1234,1:normal.,1:normal.,,*1,0
1235,1:normal.,1:normal.,,*1,0
1236,1:normal.,1:normal.,,*1,0
1237,1:normal.,1:normal.,,*1,0
1238,1:normal.,1:normal.,,*1,0
1239,1:normal.,1:normal.,,*1,0
1240,1:normal.,1:normal.,,*1,0
1241,1:normal.,1:normal.,,*1,0
1242,1:normal.,1:normal.,,*1,0
1243,1:normal.,1:normal.,,*0.998,0.002
1244,1:normal.,1:normal.,,*1,0
1245,1:normal.,1:normal.,,*1,0
1246,1:normal.,1:normal.,,*1,0
1247,1:normal.,1:normal.,,*1,0
1248,1:normal.,1:normal.,,*1,0
1249,1:normal.,1:normal.,,*1,0
1250,1:normal.,1:normal.,,*1,0
1251,1:normal.,1:normal.,,*0.998,0.002
1252,1:normal.,1:normal.,,*1,0
1253,1:normal.,1:normal.,,*1,0
1254,1:normal.,1:normal.,,*1,0
1255,1:normal.,1:normal.,,*0.997,0.003
1256,1:normal.,1:normal.,,*1,0
1257,1:normal.,1:normal.,,*1,0
1258,1:normal.,1:normal.,,*1,0
1259,1:normal.,1:normal.,,*1,0
1260,1:normal.,1:normal.,,*1,0
1261,1:normal.,1:normal.,,*1,0
1262,1:normal.,1:normal.,,*1,0
1263,1:normal.,1:normal.,,*1,0
1264,1:normal.,1:normal.,,*1,0
1265,1:normal.,1:normal.,,*1,0
1266,1:normal.,1:normal.,,*1,0
1267,1:normal.,1:normal.,,*1,0
1268,1:normal.,1:normal.,,*1,0
1269,1:normal.,1:normal.,,*0.998,0.002
1270,1:normal.,1:normal.,,*1,0
1271,1:normal.,1:normal.,,*1,0
1272,1:normal.,1:normal.,,*1,0
1273,1:normal.,1:normal.,,*1,0
1274,1:normal.,1:normal.,,*0.996,0.004
1275,1:normal.,1:normal.,,*1,0
1276,1:normal.,1:normal.,,*1,0
1277,1:normal.,1:normal.,,*0.998,0.002
1278,1:normal.,1:normal.,,*1,0
1279,1:normal.,1:normal.,,*1,0
1280,1:normal.,1:normal.,,*0.998,0.002
1281,1:normal.,1:normal.,,*1,0
1282,1:normal.,1:normal.,,*0.998,0.002
1283,1:normal.,1:normal.,,*1,0
1284,1:normal.,1:normal.,,*1,0
1285,1:normal.,1:normal.,,*1,0
1286,1:normal.,1:normal.,,*1,0
1287,1:normal.,1:normal.,,*1,0
1288,1:normal.,1:normal.,,*1,0
1289,1:normal.,1:normal.,,*1,0
1290,1:normal.,1:normal.,,*1,0
1291,1:normal.,1:normal.,,*1,0
1292,1:normal.,1:normal.,,*1,0
1293,1:normal.,1:normal.,,*1,0
1294,1:normal.,1:normal.,,*1,0
1295,1:normal.,1:normal.,,*1,0
1296,1:normal.,1:normal.,,*0.998,0.002
1297,1:normal.,1:normal.,,*1,0
1298,1:normal.,1:normal.,,*1,0
1299,1:normal.,1:normal.,,*1,0
1300,1:normal.,1:normal.,,*1,0
1301,1:normal.,1:normal.,,*1,0
1302,1:normal.,1:normal.,,*0.998,0.002
1303,1:normal.,1:normal.,,*1,0
1304,1:normal.,1:normal.,,*1,0
1305,1:normal.,1:normal.,,*1,0
1306,1:normal.,1:normal.,,*1,0
1307,1:normal.,1:normal.,,*0.998,0.002
1308,1:normal.,1:normal.,,*1,0
1309,1:normal.,1:normal.,,*1,0
1310,1:normal.,1:normal.,,*1,0
1311,1:normal.,1:normal.,,*1,0
1312,1:normal.,1:normal.,,*1,0
1313,1:normal.,1:normal.,,*1,0
1314,1:normal.,1:normal.,,*1,0
1315,1:normal.,1:normal.,,*0.998,0.002
1316,1:normal.,1:normal.,,*1,0
1317,1:normal.,1:normal.,,*1,0
1318,1:normal.,1:normal.,,*1,0
1319,1:normal.,1:normal.,,*1,0
1320,1:normal.,1:normal.,,*1,0
1321,1:normal.,1:normal.,,*1,0
1322,1:normal.,1:normal.,,*1,0
1323,1:normal.,1:normal.,,*1,0
1324,1:normal.,1:normal.,,*0.998,0.002
1325,1:normal.,1:normal.,,*0.998,0.002
1326,1:normal.,1:normal.,,*0.998,0.002
1327,1:normal.,1:normal.,,*1,0
1328,1:normal.,1:normal.,,*1,0
1329,1:normal.,1:normal.,,*1,0
1330,1:normal.,1:normal.,,*1,0
1331,1:normal.,1:normal.,,*1,0
1332,1:normal.,1:normal.,,*1,0
1333,1:normal.,1:normal.,,*1,0
1334,1:normal.,1:normal.,,*1,0
1335,1:normal.,1:normal.,,*1,0
1336,1:normal.,1:normal.,,*1,0
1337,1:normal.,1:normal.,,*1,0
1338,1:normal.,1:normal.,,*1,0
1339,1:normal.,1:normal.,,*1,0
1340,1:normal.,1:normal.,,*1,0
1341,1:normal.,1:normal.,,*1,0
1342,1:normal.,1:normal.,,*1,0
1343,1:normal.,1:normal.,,*1,0
1344,1:normal.,1:normal.,,*1,0
1345,1:normal.,1:normal.,,*0.998,0.002
1346,1:normal.,1:normal.,,*1,0
1347,1:normal.,1:normal.,,*1,0
1348,1:normal.,1:normal.,,*0.998,0.002
1349,1:normal.,1:normal.,,*1,0
1350,1:normal.,1:normal.,,*1,0
1351,1:normal.,1:normal.,,*1,0
1352,1:normal.,1:normal.,,*1,0
1353,1:normal.,1:normal.,,*1,0
1354,1:normal.,1:normal.,,*1,0
1355,1:normal.,1:normal.,,*1,0
1356,1:normal.,1:normal.,,*1,0
1357,1:normal.,1:normal.,,*1,0
1358,1:normal.,1:normal.,,*1,0
1359,1:normal.,1:normal.,,*1,0
1360,1:normal.,1:normal.,,*1,0
1361,1:normal.,1:normal.,,*1,0
1362,1:normal.,1:normal.,,*1,0
1363,1:normal.,1:normal.,,*1,0
1364,1:normal.,1:normal.,,*1,0
1365,1:normal.,1:normal.,,*1,0
1366,1:normal.,1:normal.,,*1,0
1367,1:normal.,1:normal.,,*1,0
1368,1:normal.,1:normal.,,*1,0
1369,1:normal.,1:normal.,,*1,0
1370,1:normal.,1:normal.,,*1,0
1371,1:normal.,1:normal.,,*1,0
1372,1:normal.,1:normal.,,*1,0
1373,1:normal.,1:normal.,,*1,0
1374,1:normal.,1:normal.,,*1,0
1375,1:normal.,1:normal.,,*1,0
1376,1:normal.,1:normal.,,*0.998,0.002
1377,1:normal.,1:normal.,,*1,0
1378,1:normal.,1:normal.,,*1,0
1379,1:normal.,1:normal.,,*1,0
1380,1:normal.,1:normal.,,*1,0
1381,1:normal.,1:normal.,,*1,0
1382,1:normal.,1:normal.,,*1,0
1383,1:normal.,1:normal.,,*1,0
1384,1:normal.,1:normal.,,*1,0
1385,1:normal.,1:normal.,,*1,0
1386,1:normal.,1:normal.,,*0.998,0.002
1387,1:normal.,1:normal.,,*1,0
1388,1:normal.,1:normal.,,*1,0
1389,1:normal.,1:normal.,,*1,0
1390,1:normal.,1:normal.,,*1,0
1391,1:normal.,1:normal.,,*1,0
1392,1:normal.,1:normal.,,*1,0
1393,1:normal.,1:normal.,,*0.998,0.002
1394,1:normal.,1:normal.,,*1,0
1395,1:normal.,1:normal.,,*1,0
1396,1:normal.,1:normal.,,*1,0
1397,1:normal.,1:normal.,,*1,0
1398,1:normal.,1:normal.,,*1,0
1399,1:normal.,1:normal.,,*1,0
1400,1:normal.,1:normal.,,*1,0
1401,1:normal.,1:normal.,,*0.996,0.004
1402,1:normal.,1:normal.,,*1,0
1403,1:normal.,1:normal.,,*1,0
1404,1:normal.,1:normal.,,*1,0
1405,1:normal.,1:normal.,,*1,0
1406,1:normal.,1:normal.,,*0.998,0.002
1407,1:normal.,1:normal.,,*1,0
1408,1:normal.,1:normal.,,*1,0
1409,1:normal.,1:normal.,,*1,0
1410,1:normal.,1:normal.,,*1,0
1411,1:normal.,1:normal.,,*1,0
1412,1:normal.,1:normal.,,*1,0
1413,1:normal.,1:normal.,,*0.998,0.002
1414,1:normal.,1:normal.,,*1,0
1415,1:normal.,1:normal.,,*1,0
1416,1:normal.,1:normal.,,*0.998,0.002
1417,1:normal.,1:normal.,,*1,0
1418,1:normal.,1:normal.,,*1,0
1419,1:normal.,1:normal.,,*1,0
1420,1:normal.,1:normal.,,*1,0
1421,1:normal.,1:normal.,,*1,0
1422,1:normal.,1:normal.,,*1,0
1423,1:normal.,1:normal.,,*1,0
1424,1:normal.,1:normal.,,*1,0
1425,1:normal.,1:normal.,,*1,0
1426,1:normal.,1:normal.,,*1,0
1427,1:normal.,1:normal.,,*1,0
1428,1:normal.,1:normal.,,*1,0
1429,1:normal.,1:normal.,,*1,0
1430,1:normal.,1:normal.,,*1,0
1431,1:normal.,1:normal.,,*1,0
1432,1:normal.,1:normal.,,*1,0
1433,1:normal.,1:normal.,,*0.998,0.002
1434,1:normal.,1:normal.,,*1,0
1435,1:normal.,1:normal.,,*1,0
1436,1:normal.,1:normal.,,*1,0
1437,1:normal.,1:normal.,,*1,0
1438,1:normal.,1:normal.,,*1,0
1439,1:normal.,1:normal.,,*1,0
1440,1:normal.,1:normal.,,*0.998,0.002
1441,1:normal.,1:normal.,,*0.998,0.002
1442,1:normal.,1:normal.,,*1,0
1443,1:normal.,1:normal.,,*1,0
1444,1:normal.,1:normal.,,*0.998,0.002
1445,1:normal.,1:normal.,,*1,0
1446,1:normal.,1:normal.,,*1,0
1447,1:normal.,1:normal.,,*1,0
1448,1:normal.,1:normal.,,*1,0
1449,1:normal.,1:normal.,,*1,0
1450,1:normal.,1:normal.,,*1,0
1451,1:normal.,1:normal.,,*1,0
1452,1:normal.,1:normal.,,*1,0
1453,1:normal.,1:normal.,,*1,0
1454,1:normal.,1:normal.,,*1,0
1455,1:normal.,1:normal.,,*1,0
1456,1:normal.,1:normal.,,*1,0
1457,1:normal.,1:normal.,,*0.998,0.002
1458,1:normal.,1:normal.,,*1,0
1459,1:normal.,1:normal.,,*1,0
1460,1:normal.,1:normal.,,*1,0
1461,1:normal.,1:normal.,,*1,0
1462,1:normal.,1:normal.,,*1,0
1463,1:normal.,1:normal.,,*1,0
1464,1:normal.,1:normal.,,*1,0
1465,1:normal.,1:normal.,,*1,0
1466,1:normal.,1:normal.,,*1,0
1467,1:normal.,1:normal.,,*1,0
1468,1:normal.,1:normal.,,*1,0
1469,1:normal.,1:normal.,,*1,0
1470,1:normal.,1:normal.,,*1,0
1471,1:normal.,1:normal.,,*1,0
1472,1:normal.,1:normal.,,*1,0
1473,1:normal.,1:normal.,,*0.998,0.002
1474,1:normal.,1:normal.,,*1,0
1475,1:normal.,1:normal.,,*1,0
1476,1:normal.,1:normal.,,*1,0
1477,1:normal.,1:normal.,,*1,0
1478,1:normal.,1:normal.,,*1,0
1479,1:normal.,1:normal.,,*1,0
1480,1:normal.,1:normal.,,*1,0
1481,1:normal.,1:normal.,,*1,0
1482,1:normal.,1:normal.,,*1,0
1483,1:normal.,1:normal.,,*1,0
1484,1:normal.,1:normal.,,*0.998,0.002
1485,1:normal.,1:normal.,,*1,0
1486,1:normal.,1:normal.,,*1,0
1487,1:normal.,1:normal.,,*1,0
1488,1:normal.,1:normal.,,*1,0
1489,1:normal.,1:normal.,,*1,0
1490,1:normal.,1:normal.,,*0.998,0.002
1491,1:normal.,1:normal.,,*0.998,0.002
1492,1:normal.,1:normal.,,*1,0
1493,1:normal.,1:normal.,,*1,0
1494,1:normal.,1:normal.,,*1,0
1495,1:normal.,1:normal.,,*1,0
1496,1:normal.,1:normal.,,*1,0
1497,1:normal.,1:normal.,,*1,0
1498,1:normal.,1:normal.,,*1,0
1499,1:normal.,1:normal.,,*1,0
1500,1:normal.,1:normal.,,*0.998,0.002
1501,1:normal.,1:normal.,,*1,0
1502,1:normal.,1:normal.,,*0.998,0.002
1503,1:normal.,1:normal.,,*1,0
1504,1:normal.,1:normal.,,*1,0
1505,1:normal.,1:normal.,,*1,0
1506,1:normal.,1:normal.,,*0.998,0.002
1507,1:normal.,1:normal.,,*1,0
1508,1:normal.,1:normal.,,*1,0
1509,1:normal.,1:normal.,,*1,0
1510,1:normal.,1:normal.,,*1,0
1511,1:normal.,1:normal.,,*1,0
1512,1:normal.,1:normal.,,*1,0
1513,1:normal.,1:normal.,,*1,0
1514,1:normal.,1:normal.,,*1,0
1515,1:normal.,1:normal.,,*1,0
1516,1:normal.,1:normal.,,*0.998,0.002
1517,1:normal.,1:normal.,,*1,0
1518,1:normal.,1:normal.,,*0.998,0.002
1519,1:normal.,1:normal.,,*1,0
1520,1:normal.,1:normal.,,*1,0
1521,1:normal.,1:normal.,,*1,0
1522,1:normal.,1:normal.,,*1,0
1523,1:normal.,1:normal.,,*1,0
1524,1:normal.,1:normal.,,*1,0
1525,1:normal.,1:normal.,,*1,0
1526,1:normal.,1:normal.,,*1,0
1527,1:normal.,1:normal.,,*1,0
1528,1:normal.,1:normal.,,*0.998,0.002
1529,1:normal.,1:normal.,,*1,0
1530,1:normal.,1:normal.,,*1,0
1531,1:normal.,1:normal.,,*1,0
1532,1:normal.,1:normal.,,*1,0
1533,1:normal.,1:normal.,,*1,0
1534,1:normal.,1:normal.,,*1,0
1535,1:normal.,1:normal.,,*1,0
1536,1:normal.,1:normal.,,*1,0
1537,1:normal.,1:normal.,,*0.998,0.002
1538,1:normal.,1:normal.,,*0.998,0.002
1539,1:normal.,1:normal.,,*1,0
1540,1:normal.,1:normal.,,*1,0
1541,1:normal.,1:normal.,,*1,0
1542,1:normal.,1:normal.,,*1,0
1543,1:normal.,1:normal.,,*1,0
1544,1:normal.,1:normal.,,*1,0
1545,1:normal.,1:normal.,,*1,0
1546,1:normal.,1:normal.,,*1,0
1547,1:normal.,1:normal.,,*0.998,0.002
1548,1:normal.,1:normal.,,*0.998,0.002
1549,1:normal.,1:normal.,,*0.998,0.002
1550,1:normal.,1:normal.,,*0.998,0.002
1551,1:normal.,1:normal.,,*1,0
1552,1:normal.,1:normal.,,*1,0
1553,1:normal.,1:normal.,,*1,0
1554,1:normal.,1:normal.,,*1,0
1555,1:normal.,1:normal.,,*1,0
1556,1:normal.,1:normal.,,*1,0
1557,1:normal.,1:normal.,,*1,0
1558,1:normal.,1:normal.,,*1,0
1559,1:normal.,1:normal.,,*0.998,0.002
1560,1:normal.,1:normal.,,*1,0
1561,1:normal.,1:normal.,,*1,0
1562,1:normal.,1:normal.,,*1,0
1563,1:normal.,1:normal.,,*1,0
1564,1:normal.,1:normal.,,*1,0
1565,1:normal.,1:normal.,,*1,0
1566,1:normal.,1:normal.,,*1,0
1567,1:normal.,1:normal.,,*1,0
1568,1:normal.,1:normal.,,*0.998,0.002
1569,1:normal.,1:normal.,,*1,0
1570,1:normal.,1:normal.,,*1,0
1571,1:normal.,1:normal.,,*1,0
1572,1:normal.,1:normal.,,*1,0
1573,1:normal.,1:normal.,,*1,0
1574,1:normal.,1:normal.,,*1,0
1575,1:normal.,1:normal.,,*1,0
1576,1:normal.,1:normal.,,*1,0
1577,1:normal.,1:normal.,,*1,0
1578,1:normal.,1:normal.,,*1,0
1579,1:normal.,1:normal.,,*1,0
1580,1:normal.,1:normal.,,*1,0
1581,1:normal.,1:normal.,,*1,0
1582,1:normal.,1:normal.,,*1,0
1583,1:normal.,1:normal.,,*1,0
1584,1:normal.,1:normal.,,*1,0
1585,1:normal.,1:normal.,,*1,0
1586,1:normal.,1:normal.,,*1,0
1587,1:normal.,1:normal.,,*1,0
1588,1:normal.,1:normal.,,*0.998,0.002
1589,1:normal.,1:normal.,,*1,0
1590,1:normal.,1:normal.,,*1,0
1591,1:normal.,1:normal.,,*0.996,0.004
1592,1:normal.,1:normal.,,*1,0
1593,1:normal.,1:normal.,,*0.998,0.002
1594,1:normal.,1:normal.,,*0.998,0.002
1595,1:normal.,1:normal.,,*1,0
1596,1:normal.,1:normal.,,*1,0
1597,1:normal.,1:normal.,,*1,0
1598,1:normal.,1:normal.,,*1,0
1599,1:normal.,1:normal.,,*1,0
1600,1:normal.,1:normal.,,*1,0
1601,1:normal.,1:normal.,,*1,0
1602,1:normal.,1:normal.,,*1,0
1603,1:normal.,1:normal.,,*1,0
1604,1:normal.,1:normal.,,*0.998,0.002
1605,1:normal.,1:normal.,,*1,0
1606,1:normal.,1:normal.,,*1,0
1607,1:normal.,1:normal.,,*1,0
1608,1:normal.,1:normal.,,*1,0
1609,1:normal.,1:normal.,,*1,0
1610,1:normal.,1:normal.,,*1,0
1611,1:normal.,1:normal.,,*0.998,0.002
1612,1:normal.,1:normal.,,*1,0
1613,1:normal.,1:normal.,,*1,0
1614,1:normal.,1:normal.,,*1,0
1615,1:normal.,1:normal.,,*1,0
1616,1:normal.,1:normal.,,*1,0
1617,1:normal.,1:normal.,,*1,0
1618,1:normal.,1:normal.,,*1,0
1619,1:normal.,1:normal.,,*1,0
1620,1:normal.,1:normal.,,*1,0
1621,1:normal.,1:normal.,,*1,0
1622,1:normal.,1:normal.,,*1,0
1623,1:normal.,1:normal.,,*1,0
1624,1:normal.,1:normal.,,*1,0
1625,1:normal.,1:normal.,,*1,0
1626,1:normal.,1:normal.,,*1,0
1627,1:normal.,1:normal.,,*1,0
1628,1:normal.,1:normal.,,*1,0
1629,1:normal.,1:normal.,,*1,0
1630,1:normal.,1:normal.,,*1,0
1631,1:normal.,1:normal.,,*1,0
1632,1:normal.,1:normal.,,*1,0
1633,1:normal.,1:normal.,,*0.998,0.002
1634,1:normal.,1:normal.,,*0.998,0.002
1635,1:normal.,1:normal.,,*1,0
1636,1:normal.,1:normal.,,*1,0
1637,1:normal.,1:normal.,,*1,0
1638,1:normal.,1:normal.,,*1,0
1639,1:normal.,1:normal.,,*0.998,0.002
1640,1:normal.,1:normal.,,*1,0
1641,1:normal.,1:normal.,,*1,0
1642,1:normal.,1:normal.,,*1,0
1643,1:normal.,1:normal.,,*1,0
1644,1:normal.,1:normal.,,*0.998,0.002
1645,1:normal.,1:normal.,,*1,0
1646,1:normal.,1:normal.,,*1,0
1647,1:normal.,1:normal.,,*1,0
1648,1:normal.,1:normal.,,*1,0
1649,1:normal.,1:normal.,,*1,0
1650,1:normal.,1:normal.,,*1,0
1651,1:normal.,1:normal.,,*1,0
1652,1:normal.,1:normal.,,*1,0
1653,1:normal.,1:normal.,,*1,0
1654,1:normal.,1:normal.,,*1,0
1655,1:normal.,1:normal.,,*1,0
1656,1:normal.,1:normal.,,*1,0
1657,1:normal.,1:normal.,,*1,0
1658,1:normal.,1:normal.,,*1,0
1659,1:normal.,1:normal.,,*1,0
1660,1:normal.,1:normal.,,*1,0
1661,1:normal.,1:normal.,,*0.998,0.002
1662,1:normal.,1:normal.,,*0.998,0.002
1663,1:normal.,1:normal.,,*1,0
1664,1:normal.,1:normal.,,*1,0
1665,1:normal.,1:normal.,,*1,0
1666,1:normal.,1:normal.,,*1,0
1667,1:normal.,1:normal.,,*1,0
1668,1:normal.,1:normal.,,*1,0
1669,1:normal.,1:normal.,,*1,0
1670,1:normal.,1:normal.,,*1,0
1671,1:normal.,1:normal.,,*1,0
1672,1:normal.,1:normal.,,*1,0
1673,1:normal.,1:normal.,,*1,0
1674,1:normal.,1:normal.,,*1,0
1675,1:normal.,1:normal.,,*1,0
1676,1:normal.,1:normal.,,*1,0
1677,1:normal.,1:normal.,,*1,0
1678,1:normal.,1:normal.,,*1,0
1679,1:normal.,1:normal.,,*0.998,0.002
1680,1:normal.,1:normal.,,*1,0
1681,1:normal.,1:normal.,,*1,0
1682,1:normal.,1:normal.,,*1,0
1683,1:normal.,1:normal.,,*1,0
1684,1:normal.,1:normal.,,*1,0
1685,1:normal.,1:normal.,,*1,0
1686,1:normal.,1:normal.,,*1,0
1687,1:normal.,1:normal.,,*1,0
1688,1:normal.,1:normal.,,*1,0
1689,1:normal.,1:normal.,,*1,0
1690,1:normal.,1:normal.,,*0.998,0.002
1691,1:normal.,1:normal.,,*1,0
1692,1:normal.,1:normal.,,*0.998,0.002
1693,1:normal.,1:normal.,,*1,0
1694,1:normal.,1:normal.,,*1,0
1695,1:normal.,1:normal.,,*1,0
1696,1:normal.,1:normal.,,*1,0
1697,1:normal.,1:normal.,,*1,0
1698,1:normal.,1:normal.,,*1,0
1699,1:normal.,1:normal.,,*1,0
1700,1:normal.,1:normal.,,*1,0
1701,1:normal.,1:normal.,,*1,0
1702,1:normal.,1:normal.,,*1,0
1703,1:normal.,1:normal.,,*1,0
1704,1:normal.,1:normal.,,*1,0
1705,1:normal.,1:normal.,,*1,0
1706,1:normal.,1:normal.,,*1,0
1707,1:normal.,1:normal.,,*1,0
1708,1:normal.,1:normal.,,*1,0
1709,1:normal.,1:normal.,,*1,0
1710,1:normal.,1:normal.,,*1,0
1711,1:normal.,1:normal.,,*1,0
1712,1:normal.,1:normal.,,*1,0
1713,1:normal.,1:normal.,,*1,0
1714,1:normal.,1:normal.,,*0.998,0.002
1715,1:normal.,1:normal.,,*1,0
1716,1:normal.,1:normal.,,*1,0
1717,1:normal.,1:normal.,,*1,0
1718,1:normal.,1:normal.,,*1,0
1719,1:normal.,1:normal.,,*1,0
1720,1:normal.,1:normal.,,*1,0
1721,1:normal.,1:normal.,,*1,0
1722,1:normal.,1:normal.,,*1,0
1723,1:normal.,1:normal.,,*0.998,0.002
1724,1:normal.,1:normal.,,*1,0
1725,1:normal.,1:normal.,,*1,0
1726,1:normal.,1:normal.,,*0.998,0.002
1727,1:normal.,1:normal.,,*1,0
1728,1:normal.,1:normal.,,*1,0
1729,1:normal.,1:normal.,,*0.998,0.002
1730,1:normal.,1:normal.,,*1,0
1731,1:normal.,1:normal.,,*1,0
1732,1:normal.,1:normal.,,*1,0
1733,1:normal.,1:normal.,,*1,0
1734,1:normal.,1:normal.,,*1,0
1735,1:normal.,1:normal.,,*1,0
1736,1:normal.,1:normal.,,*1,0
1737,1:normal.,1:normal.,,*1,0
1738,1:normal.,1:normal.,,*0.998,0.002
1739,1:normal.,1:normal.,,*1,0
1740,1:normal.,1:normal.,,*1,0
1741,1:normal.,1:normal.,,*1,0
1742,1:normal.,1:normal.,,*1,0
1743,1:normal.,1:normal.,,*1,0
1744,1:normal.,1:normal.,,*1,0
1745,1:normal.,1:normal.,,*1,0
1746,1:normal.,1:normal.,,*0.998,0.002
1747,1:normal.,1:normal.,,*1,0
1748,1:normal.,1:normal.,,*1,0
1749,1:normal.,1:normal.,,*1,0
1750,1:normal.,1:normal.,,*1,0
1751,1:normal.,1:normal.,,*1,0
1752,1:normal.,1:normal.,,*1,0
1753,1:normal.,1:normal.,,*1,0
1754,1:normal.,1:normal.,,*1,0
1755,1:normal.,1:normal.,,*1,0
1756,1:normal.,1:normal.,,*1,0
1757,1:normal.,1:normal.,,*1,0
1758,1:normal.,1:normal.,,*1,0
1759,1:normal.,1:normal.,,*1,0
1760,1:normal.,1:normal.,,*1,0
1761,1:normal.,1:normal.,,*1,0
1762,1:normal.,1:normal.,,*1,0
1763,1:normal.,1:normal.,,*1,0
1764,1:normal.,1:normal.,,*1,0
1765,1:normal.,1:normal.,,*1,0
1766,1:normal.,1:normal.,,*1,0
1767,1:normal.,1:normal.,,*1,0
1768,1:normal.,1:normal.,,*1,0
1769,1:normal.,1:normal.,,*0.998,0.002
1770,1:normal.,1:normal.,,*1,0
1771,1:normal.,1:normal.,,*1,0
1772,1:normal.,1:normal.,,*1,0
1773,1:normal.,1:normal.,,*1,0
1774,1:normal.,1:normal.,,*1,0
1775,1:normal.,1:normal.,,*1,0
1776,1:normal.,1:normal.,,*1,0
1777,1:normal.,1:normal.,,*0.998,0.002
1778,1:normal.,1:normal.,,*1,0
1779,1:normal.,1:normal.,,*1,0
1780,1:normal.,1:normal.,,*1,0
1781,1:normal.,1:normal.,,*1,0
1782,1:normal.,1:normal.,,*0.998,0.002
1783,1:normal.,1:normal.,,*1,0
1784,1:normal.,1:normal.,,*1,0
1785,1:normal.,1:normal.,,*0.998,0.002
1786,1:normal.,1:normal.,,*1,0
1787,1:normal.,1:normal.,,*1,0
1788,1:normal.,1:normal.,,*1,0
1789,1:normal.,1:normal.,,*1,0
1790,1:normal.,1:normal.,,*1,0
1791,1:normal.,1:normal.,,*1,0
1792,1:normal.,1:normal.,,*1,0
1793,1:normal.,1:normal.,,*0.998,0.002
1794,1:normal.,1:normal.,,*0.998,0.002
1795,1:normal.,1:normal.,,*1,0
1796,1:normal.,1:normal.,,*1,0
1797,1:normal.,1:normal.,,*1,0
1798,1:normal.,1:normal.,,*1,0
1799,1:normal.,1:normal.,,*0.997,0.003
1800,1:normal.,1:normal.,,*1,0
1801,1:normal.,1:normal.,,*1,0
1802,1:normal.,1:normal.,,*1,0
1803,1:normal.,1:normal.,,*1,0
1804,1:normal.,1:normal.,,*1,0
1805,1:normal.,1:normal.,,*1,0
1806,1:normal.,1:normal.,,*1,0
1807,1:normal.,1:normal.,,*1,0
1808,1:normal.,1:normal.,,*1,0
1809,1:normal.,1:normal.,,*1,0
1810,1:normal.,1:normal.,,*0.998,0.002
1811,1:normal.,1:normal.,,*1,0
1812,1:normal.,1:normal.,,*1,0
1813,1:normal.,1:normal.,,*1,0
1814,1:normal.,1:normal.,,*0.998,0.002
1815,1:normal.,1:normal.,,*1,0
1816,1:normal.,1:normal.,,*1,0
1817,1:normal.,1:normal.,,*1,0
1818,1:normal.,1:normal.,,*1,0
1819,1:normal.,1:normal.,,*1,0
1820,1:normal.,1:normal.,,*1,0
1821,1:normal.,1:normal.,,*1,0
1822,1:normal.,1:normal.,,*1,0
1823,1:normal.,1:normal.,,*1,0
1824,1:normal.,1:normal.,,*1,0
1825,1:normal.,1:normal.,,*1,0
1826,1:normal.,1:normal.,,*0.997,0.003
1827,1:normal.,1:normal.,,*1,0
1828,1:normal.,1:normal.,,*1,0
1829,1:normal.,1:normal.,,*1,0
1830,1:normal.,1:normal.,,*1,0
1831,1:normal.,1:normal.,,*1,0
1832,1:normal.,1:normal.,,*1,0
1833,1:normal.,1:normal.,,*0.996,0.004
1834,1:normal.,1:normal.,,*1,0
1835,1:normal.,1:normal.,,*1,0
1836,1:normal.,1:normal.,,*1,0
1837,1:normal.,1:normal.,,*0.998,0.002
1838,1:normal.,1:normal.,,*1,0
1839,1:normal.,1:normal.,,*1,0
1840,1:normal.,1:normal.,,*1,0
1841,1:normal.,1:normal.,,*1,0
1842,1:normal.,1:normal.,,*1,0
1843,1:normal.,1:normal.,,*1,0
1844,1:normal.,1:normal.,,*1,0
1845,1:normal.,1:normal.,,*1,0
1846,1:normal.,1:normal.,,*1,0
1847,1:normal.,1:normal.,,*1,0
1848,1:normal.,1:normal.,,*1,0
1849,1:normal.,1:normal.,,*0.998,0.002
1850,1:normal.,1:normal.,,*1,0
1851,1:normal.,1:normal.,,*1,0
1852,1:normal.,1:normal.,,*1,0
1853,1:normal.,1:normal.,,*1,0
1854,1:normal.,1:normal.,,*1,0
1855,1:normal.,1:normal.,,*1,0
1856,1:normal.,1:normal.,,*1,0
1857,1:normal.,1:normal.,,*1,0
1858,1:normal.,1:normal.,,*1,0
1859,1:normal.,1:normal.,,*1,0
1860,1:normal.,1:normal.,,*1,0
1861,1:normal.,1:normal.,,*1,0
1862,1:normal.,1:normal.,,*1,0
1863,1:normal.,1:normal.,,*1,0
1864,1:normal.,1:normal.,,*1,0
1865,1:normal.,1:normal.,,*1,0
1866,1:normal.,1:normal.,,*0.998,0.002
1867,1:normal.,1:normal.,,*1,0
1868,1:normal.,1:normal.,,*1,0
1869,1:normal.,1:normal.,,*1,0
1870,1:normal.,1:normal.,,*1,0
1871,1:normal.,1:normal.,,*1,0
1872,1:normal.,1:normal.,,*1,0
1873,1:normal.,1:normal.,,*1,0
1874,1:normal.,1:normal.,,*0.998,0.002
1875,1:normal.,1:normal.,,*1,0
1876,1:normal.,1:normal.,,*1,0
1877,1:normal.,1:normal.,,*1,0
1878,1:normal.,1:normal.,,*1,0
1879,1:normal.,1:normal.,,*1,0
1880,1:normal.,1:normal.,,*0.997,0.003
1881,1:normal.,1:normal.,,*1,0
1882,1:normal.,1:normal.,,*1,0
1883,1:normal.,1:normal.,,*0.998,0.002
1884,1:normal.,1:normal.,,*1,0
1885,1:normal.,1:normal.,,*1,0
1886,1:normal.,1:normal.,,*1,0
1887,1:normal.,1:normal.,,*0.996,0.004
1888,1:normal.,1:normal.,,*1,0
1889,1:normal.,1:normal.,,*1,0
1890,1:normal.,1:normal.,,*1,0
1891,1:normal.,1:normal.,,*1,0
1892,1:normal.,1:normal.,,*1,0
1893,1:normal.,1:normal.,,*1,0
1894,1:normal.,1:normal.,,*1,0
1895,1:normal.,1:normal.,,*1,0
1896,1:normal.,1:normal.,,*1,0
1897,1:normal.,1:normal.,,*1,0
1898,1:normal.,1:normal.,,*1,0
1899,1:normal.,1:normal.,,*1,0
1900,1:normal.,1:normal.,,*1,0
1901,1:normal.,1:normal.,,*1,0
1902,1:normal.,1:normal.,,*1,0
1903,1:normal.,1:normal.,,*1,0
1904,1:normal.,1:normal.,,*0.998,0.002
1905,1:normal.,1:normal.,,*1,0
1906,1:normal.,1:normal.,,*0.998,0.002
1907,1:normal.,1:normal.,,*0.997,0.003
1908,1:normal.,1:normal.,,*1,0
1909,1:normal.,1:normal.,,*1,0
1910,1:normal.,1:normal.,,*1,0
1911,1:normal.,1:normal.,,*1,0
1912,1:normal.,1:normal.,,*1,0
1913,1:normal.,1:normal.,,*1,0
1914,1:normal.,1:normal.,,*1,0
1915,1:normal.,1:normal.,,*1,0
1916,1:normal.,1:normal.,,*1,0
1917,1:normal.,1:normal.,,*1,0
1918,1:normal.,1:normal.,,*1,0
1919,1:normal.,1:normal.,,*1,0
1920,1:normal.,1:normal.,,*1,0
1921,1:normal.,1:normal.,,*1,0
1922,1:normal.,1:normal.,,*1,0
1923,1:normal.,1:normal.,,*1,0
1924,1:normal.,1:normal.,,*1,0
1925,1:normal.,1:normal.,,*1,0
1926,1:normal.,1:normal.,,*1,0
1927,1:normal.,1:normal.,,*1,0
1928,1:normal.,1:normal.,,*1,0
1929,1:normal.,1:normal.,,*1,0
1930,1:normal.,1:normal.,,*1,0
1931,1:normal.,1:normal.,,*1,0
1932,1:normal.,1:normal.,,*1,0
1933,1:normal.,1:normal.,,*0.998,0.002
1934,1:normal.,1:normal.,,*1,0
1935,1:normal.,1:normal.,,*1,0
1936,1:normal.,1:normal.,,*1,0
1937,1:normal.,1:normal.,,*1,0
1938,1:normal.,1:normal.,,*0.998,0.002
1939,1:normal.,1:normal.,,*0.998,0.002
1940,1:normal.,1:normal.,,*1,0
1941,1:normal.,1:normal.,,*1,0
1942,1:normal.,1:normal.,,*1,0
1943,1:normal.,1:normal.,,*1,0
1944,1:normal.,1:normal.,,*1,0
1945,1:normal.,1:normal.,,*1,0
1946,1:normal.,1:normal.,,*1,0
1947,1:normal.,1:normal.,,*0.996,0.004
1948,1:normal.,1:normal.,,*1,0
1949,1:normal.,1:normal.,,*1,0
1950,1:normal.,1:normal.,,*1,0
1951,1:normal.,1:normal.,,*1,0
1952,1:normal.,1:normal.,,*0.998,0.002
1953,1:normal.,1:normal.,,*1,0
1954,1:normal.,1:normal.,,*1,0
1955,1:normal.,1:normal.,,*1,0
1956,1:normal.,1:normal.,,*1,0
1957,1:normal.,1:normal.,,*0.998,0.002
1958,1:normal.,1:normal.,,*0.998,0.002
1959,1:normal.,1:normal.,,*1,0
1960,1:normal.,1:normal.,,*0.997,0.003
1961,1:normal.,1:normal.,,*1,0
1962,1:normal.,1:normal.,,*0.998,0.002
1963,1:normal.,1:normal.,,*1,0
1964,1:normal.,1:normal.,,*1,0
1965,1:normal.,1:normal.,,*0.998,0.002
1966,1:normal.,1:normal.,,*1,0
1967,1:normal.,1:normal.,,*1,0
1968,1:normal.,1:normal.,,*1,0
1969,1:normal.,1:normal.,,*1,0
1970,1:normal.,1:normal.,,*1,0
1971,1:normal.,1:normal.,,*1,0
1972,1:normal.,1:normal.,,*1,0
1973,1:normal.,1:normal.,,*1,0
1974,1:normal.,1:normal.,,*1,0
1975,1:normal.,1:normal.,,*1,0
1976,1:normal.,1:normal.,,*1,0
1977,1:normal.,1:normal.,,*1,0
1978,1:normal.,1:normal.,,*1,0
1979,1:normal.,1:normal.,,*1,0
1980,1:normal.,1:normal.,,*1,0
1981,1:normal.,1:normal.,,*0.998,0.002
1982,1:normal.,1:normal.,,*1,0
1983,1:normal.,1:normal.,,*1,0
1984,1:normal.,1:normal.,,*1,0
1985,1:normal.,1:normal.,,*1,0
1986,1:normal.,1:normal.,,*1,0
1987,1:normal.,1:normal.,,*1,0
1988,1:normal.,1:normal.,,*0.998,0.002
1989,1:normal.,1:normal.,,*1,0
1990,1:normal.,1:normal.,,*0.998,0.002
1991,1:normal.,1:normal.,,*1,0
1992,1:normal.,1:normal.,,*1,0
1993,1:normal.,1:normal.,,*1,0
1994,1:normal.,1:normal.,,*1,0
1995,1:normal.,1:normal.,,*1,0
1996,1:normal.,1:normal.,,*0.998,0.002
1997,1:normal.,1:normal.,,*1,0
1998,1:normal.,1:normal.,,*0.998,0.002
1999,1:normal.,1:normal.,,*1,0
2000,1:normal.,1:normal.,,*0.998,0.002
2001,1:normal.,1:normal.,,*1,0
2002,1:normal.,1:normal.,,*1,0
2003,1:normal.,1:normal.,,*1,0
2004,1:normal.,1:normal.,,*1,0
2005,1:normal.,1:normal.,,*0.998,0.002
2006,1:normal.,1:normal.,,*1,0
2007,1:normal.,1:normal.,,*1,0
2008,1:normal.,1:normal.,,*1,0
2009,1:normal.,1:normal.,,*1,0
2010,1:normal.,1:normal.,,*1,0
2011,1:normal.,1:normal.,,*0.998,0.002
2012,1:normal.,1:normal.,,*1,0
2013,1:normal.,1:normal.,,*1,0
2014,1:normal.,1:normal.,,*1,0
2015,1:normal.,1:normal.,,*1,0
2016,1:normal.,1:normal.,,*1,0
2017,1:normal.,1:normal.,,*1,0
2018,1:normal.,1:normal.,,*1,0
2019,1:normal.,1:normal.,,*1,0
2020,1:normal.,1:normal.,,*1,0
2021,1:normal.,1:normal.,,*1,0
2022,1:normal.,1:normal.,,*0.998,0.002
2023,1:normal.,1:normal.,,*1,0
2024,1:normal.,1:normal.,,*1,0
2025,1:normal.,1:normal.,,*0.998,0.002
2026,1:normal.,1:normal.,,*1,0
2027,1:normal.,1:normal.,,*1,0
2028,1:normal.,1:normal.,,*1,0
2029,1:normal.,1:normal.,,*1,0
2030,1:normal.,1:normal.,,*1,0
2031,1:normal.,1:normal.,,*1,0
2032,1:normal.,1:normal.,,*1,0
2033,1:normal.,1:normal.,,*0.998,0.002
2034,1:normal.,1:normal.,,*1,0
2035,1:normal.,1:normal.,,*1,0
2036,1:normal.,1:normal.,,*1,0
2037,1:normal.,1:normal.,,*1,0
2038,1:normal.,1:normal.,,*1,0
2039,1:normal.,1:normal.,,*1,0
2040,1:normal.,1:normal.,,*1,0
2041,1:normal.,1:normal.,,*1,0
2042,1:normal.,1:normal.,,*1,0
2043,1:normal.,1:normal.,,*1,0
2044,1:normal.,1:normal.,,*0.998,0.002
2045,1:normal.,1:normal.,,*1,0
2046,1:normal.,1:normal.,,*1,0
2047,1:normal.,1:normal.,,*1,0
2048,1:normal.,1:normal.,,*1,0
2049,1:normal.,1:normal.,,*1,0
2050,1:normal.,1:normal.,,*0.998,0.002
2051,1:normal.,1:normal.,,*0.998,0.002
2052,1:normal.,1:normal.,,*0.998,0.002
2053,1:normal.,1:normal.,,*1,0
2054,1:normal.,1:normal.,,*0.998,0.002
2055,1:normal.,1:normal.,,*1,0
2056,1:normal.,1:normal.,,*1,0
2057,1:normal.,1:normal.,,*1,0
2058,1:normal.,1:normal.,,*1,0
2059,1:normal.,1:normal.,,*1,0
2060,1:normal.,1:normal.,,*1,0
2061,1:normal.,1:normal.,,*0.998,0.002
2062,1:normal.,1:normal.,,*1,0
2063,1:normal.,1:normal.,,*1,0
2064,1:normal.,1:normal.,,*1,0
2065,1:normal.,1:normal.,,*0.997,0.003
2066,1:normal.,1:normal.,,*1,0
2067,1:normal.,1:normal.,,*1,0
2068,1:normal.,1:normal.,,*1,0
2069,1:normal.,1:normal.,,*1,0
2070,1:normal.,1:normal.,,*1,0
2071,1:normal.,1:normal.,,*1,0
2072,1:normal.,1:normal.,,*1,0
2073,1:normal.,1:normal.,,*1,0
2074,1:normal.,1:normal.,,*1,0
2075,1:normal.,1:normal.,,*1,0
2076,1:normal.,1:normal.,,*1,0
2077,1:normal.,1:normal.,,*1,0
2078,1:normal.,1:normal.,,*1,0
2079,1:normal.,1:normal.,,*1,0
2080,1:normal.,1:normal.,,*0.998,0.002
2081,1:normal.,1:normal.,,*1,0
2082,1:normal.,1:normal.,,*1,0
2083,1:normal.,1:normal.,,*1,0
2084,1:normal.,1:normal.,,*0.998,0.002
2085,1:normal.,1:normal.,,*1,0
2086,1:normal.,1:normal.,,*1,0
2087,1:normal.,1:normal.,,*1,0
2088,1:normal.,1:normal.,,*1,0
2089,1:normal.,1:normal.,,*1,0
2090,1:normal.,1:normal.,,*1,0
2091,1:normal.,1:normal.,,*0.998,0.002
2092,1:normal.,1:normal.,,*1,0
2093,1:normal.,1:normal.,,*1,0
2094,1:normal.,1:normal.,,*1,0
2095,1:normal.,1:normal.,,*1,0
2096,1:normal.,1:normal.,,*0.998,0.002
2097,1:normal.,1:normal.,,*1,0
2098,1:normal.,1:normal.,,*1,0
2099,1:normal.,1:normal.,,*1,0
2100,1:normal.,1:normal.,,*1,0
2101,1:normal.,1:normal.,,*1,0
2102,1:normal.,1:normal.,,*1,0
2103,1:normal.,1:normal.,,*1,0
2104,1:normal.,1:normal.,,*0.998,0.002
2105,1:normal.,1:normal.,,*1,0
2106,1:normal.,1:normal.,,*1,0
2107,1:normal.,1:normal.,,*1,0
2108,1:normal.,1:normal.,,*1,0
2109,1:normal.,1:normal.,,*1,0
2110,1:normal.,1:normal.,,*1,0
2111,1:normal.,1:normal.,,*1,0
2112,1:normal.,1:normal.,,*0.998,0.002
2113,1:normal.,1:normal.,,*1,0
2114,1:normal.,1:normal.,,*0.998,0.002
2115,1:normal.,1:normal.,,*1,0
2116,1:normal.,1:normal.,,*1,0
2117,1:normal.,1:normal.,,*0.998,0.002
2118,1:normal.,1:normal.,,*1,0
2119,1:normal.,1:normal.,,*1,0
2120,1:normal.,1:normal.,,*1,0
2121,1:normal.,1:normal.,,*1,0
2122,1:normal.,1:normal.,,*1,0
2123,1:normal.,1:normal.,,*1,0
2124,1:normal.,1:normal.,,*1,0
2125,1:normal.,1:normal.,,*1,0
2126,1:normal.,1:normal.,,*1,0
2127,1:normal.,1:normal.,,*1,0
2128,1:normal.,1:normal.,,*1,0
2129,1:normal.,1:normal.,,*1,0
2130,1:normal.,1:normal.,,*1,0
2131,1:normal.,1:normal.,,*0.997,0.003
2132,1:normal.,1:normal.,,*1,0
2133,1:normal.,1:normal.,,*1,0
2134,1:normal.,1:normal.,,*1,0
2135,1:normal.,1:normal.,,*1,0
2136,1:normal.,1:normal.,,*1,0
2137,1:normal.,1:normal.,,*1,0
2138,1:normal.,1:normal.,,*1,0
2139,1:normal.,1:normal.,,*0.998,0.002
2140,1:normal.,1:normal.,,*0.998,0.002
2141,1:normal.,1:normal.,,*0.998,0.002
2142,1:normal.,1:normal.,,*1,0
2143,1:normal.,1:normal.,,*1,0
2144,1:normal.,1:normal.,,*1,0
2145,1:normal.,1:normal.,,*1,0
2146,1:normal.,1:normal.,,*1,0
2147,1:normal.,1:normal.,,*0.998,0.002
2148,1:normal.,1:normal.,,*1,0
2149,1:normal.,1:normal.,,*1,0
2150,1:normal.,1:normal.,,*1,0
2151,1:normal.,1:normal.,,*1,0
2152,1:normal.,1:normal.,,*1,0
2153,1:normal.,1:normal.,,*1,0
2154,1:normal.,1:normal.,,*1,0
2155,1:normal.,1:normal.,,*1,0
2156,1:normal.,1:normal.,,*1,0
2157,1:normal.,1:normal.,,*1,0
2158,1:normal.,1:normal.,,*0.998,0.002
2159,1:normal.,1:normal.,,*1,0
2160,1:normal.,1:normal.,,*1,0
2161,1:normal.,1:normal.,,*1,0
2162,1:normal.,1:normal.,,*1,0
2163,1:normal.,1:normal.,,*1,0
2164,1:normal.,1:normal.,,*1,0
2165,1:normal.,1:normal.,,*1,0
2166,1:normal.,1:normal.,,*1,0
2167,1:normal.,1:normal.,,*1,0
2168,1:normal.,1:normal.,,*1,0
2169,1:normal.,1:normal.,,*1,0
2170,1:normal.,1:normal.,,*1,0
2171,1:normal.,1:normal.,,*1,0
2172,1:normal.,1:normal.,,*1,0
2173,1:normal.,1:normal.,,*1,0
2174,1:normal.,1:normal.,,*1,0
2175,1:normal.,1:normal.,,*1,0
2176,1:normal.,1:normal.,,*1,0
2177,1:normal.,1:normal.,,*1,0
2178,1:normal.,1:normal.,,*1,0
2179,1:normal.,1:normal.,,*1,0
2180,1:normal.,1:normal.,,*1,0
2181,1:normal.,1:normal.,,*1,0
2182,1:normal.,1:normal.,,*0.998,0.002
2183,1:normal.,1:normal.,,*1,0
2184,1:normal.,1:normal.,,*0.997,0.003
2185,1:normal.,1:normal.,,*1,0
2186,1:normal.,1:normal.,,*1,0
2187,1:normal.,1:normal.,,*1,0
2188,1:normal.,1:normal.,,*1,0
2189,1:normal.,1:normal.,,*1,0
2190,1:normal.,1:normal.,,*0.998,0.002
2191,1:normal.,1:normal.,,*1,0
2192,1:normal.,1:normal.,,*1,0
2193,1:normal.,1:normal.,,*0.998,0.002
2194,1:normal.,1:normal.,,*1,0
2195,1:normal.,1:normal.,,*1,0
2196,1:normal.,1:normal.,,*1,0
2197,1:normal.,1:normal.,,*0.998,0.002
2198,1:normal.,1:normal.,,*0.998,0.002
2199,1:normal.,1:normal.,,*1,0
2200,1:normal.,1:normal.,,*1,0
2201,1:normal.,1:normal.,,*1,0
2202,1:normal.,1:normal.,,*0.998,0.002
2203,1:normal.,1:normal.,,*1,0
2204,1:normal.,1:normal.,,*1,0
2205,1:normal.,1:normal.,,*1,0
2206,1:normal.,1:normal.,,*1,0
2207,1:normal.,1:normal.,,*1,0
2208,1:normal.,1:normal.,,*1,0
2209,1:normal.,1:normal.,,*1,0
2210,1:normal.,1:normal.,,*1,0
2211,1:normal.,1:normal.,,*1,0
2212,1:normal.,1:normal.,,*1,0
2213,1:normal.,1:normal.,,*1,0
2214,1:normal.,1:normal.,,*0.996,0.004
2215,1:normal.,1:normal.,,*1,0
2216,1:normal.,1:normal.,,*1,0
2217,1:normal.,1:normal.,,*1,0
2218,1:normal.,1:normal.,,*1,0
2219,1:normal.,1:normal.,,*0.996,0.004
2220,1:normal.,1:normal.,,*1,0
2221,1:normal.,1:normal.,,*1,0
2222,1:normal.,1:normal.,,*1,0
2223,1:normal.,1:normal.,,*1,0
2224,1:normal.,1:normal.,,*1,0
2225,1:normal.,1:normal.,,*1,0
2226,1:normal.,1:normal.,,*1,0
2227,1:normal.,1:normal.,,*1,0
2228,1:normal.,1:normal.,,*1,0
2229,1:normal.,1:normal.,,*1,0
2230,1:normal.,1:normal.,,*1,0
2231,1:normal.,1:normal.,,*1,0
2232,1:normal.,1:normal.,,*1,0
2233,1:normal.,1:normal.,,*1,0
2234,1:normal.,1:normal.,,*0.998,0.002
2235,1:normal.,1:normal.,,*1,0
2236,1:normal.,1:normal.,,*1,0
2237,1:normal.,1:normal.,,*1,0
2238,1:normal.,1:normal.,,*1,0
2239,1:normal.,1:normal.,,*1,0
2240,1:normal.,1:normal.,,*1,0
2241,1:normal.,1:normal.,,*1,0
2242,1:normal.,1:normal.,,*0.996,0.004
2243,1:normal.,1:normal.,,*1,0
2244,1:normal.,1:normal.,,*1,0
2245,1:normal.,1:normal.,,*1,0
2246,1:normal.,1:normal.,,*0.998,0.002
2247,1:normal.,1:normal.,,*1,0
2248,1:normal.,1:normal.,,*1,0
2249,1:normal.,1:normal.,,*0.998,0.002
2250,1:normal.,1:normal.,,*1,0
2251,1:normal.,1:normal.,,*1,0
2252,1:normal.,1:normal.,,*1,0
2253,1:normal.,1:normal.,,*1,0
2254,1:normal.,1:normal.,,*1,0
2255,1:normal.,1:normal.,,*1,0
2256,1:normal.,1:normal.,,*1,0
2257,1:normal.,1:normal.,,*1,0
2258,1:normal.,1:normal.,,*1,0
2259,1:normal.,1:normal.,,*1,0
2260,1:normal.,1:normal.,,*1,0
2261,1:normal.,1:normal.,,*1,0
2262,1:normal.,1:normal.,,*1,0
2263,1:normal.,1:normal.,,*1,0
2264,1:normal.,1:normal.,,*0.998,0.002
2265,1:normal.,1:normal.,,*1,0
2266,1:normal.,1:normal.,,*1,0
2267,1:normal.,1:normal.,,*1,0
2268,1:normal.,1:normal.,,*1,0
2269,1:normal.,1:normal.,,*1,0
2270,1:normal.,1:normal.,,*1,0
2271,1:normal.,1:normal.,,*1,0
2272,1:normal.,1:normal.,,*1,0
2273,1:normal.,1:normal.,,*1,0
2274,1:normal.,1:normal.,,*1,0
2275,1:normal.,1:normal.,,*1,0
2276,1:normal.,1:normal.,,*1,0
2277,1:normal.,1:normal.,,*0.998,0.002
2278,1:normal.,1:normal.,,*1,0
2279,1:normal.,1:normal.,,*1,0
2280,1:normal.,1:normal.,,*0.998,0.002
2281,1:normal.,1:normal.,,*0.998,0.002
2282,1:normal.,1:normal.,,*1,0
2283,1:normal.,1:normal.,,*1,0
2284,1:normal.,1:normal.,,*0.998,0.002
2285,1:normal.,1:normal.,,*1,0
2286,1:normal.,1:normal.,,*1,0
2287,1:normal.,1:normal.,,*1,0
2288,1:normal.,1:normal.,,*1,0
2289,1:normal.,1:normal.,,*1,0
2290,1:normal.,1:normal.,,*1,0
2291,1:normal.,1:normal.,,*1,0
2292,1:normal.,1:normal.,,*1,0
2293,1:normal.,1:normal.,,*1,0
2294,1:normal.,1:normal.,,*1,0
2295,1:normal.,1:normal.,,*1,0
2296,1:normal.,1:normal.,,*1,0
2297,1:normal.,1:normal.,,*0.998,0.002
2298,1:normal.,1:normal.,,*1,0
2299,1:normal.,1:normal.,,*1,0
2300,1:normal.,1:normal.,,*1,0
2301,1:normal.,1:normal.,,*1,0
2302,1:normal.,1:normal.,,*1,0
2303,1:normal.,1:normal.,,*1,0
2304,1:normal.,1:normal.,,*0.998,0.002
2305,1:normal.,1:normal.,,*1,0
2306,1:normal.,1:normal.,,*0.998,0.002
2307,1:normal.,1:normal.,,*0.998,0.002
2308,1:normal.,1:normal.,,*1,0
2309,1:normal.,1:normal.,,*1,0
2310,1:normal.,1:normal.,,*1,0
2311,1:normal.,1:normal.,,*1,0
2312,1:normal.,1:normal.,,*1,0
2313,1:normal.,1:normal.,,*1,0
2314,1:normal.,1:normal.,,*1,0
2315,1:normal.,1:normal.,,*1,0
2316,1:normal.,1:normal.,,*1,0
2317,1:normal.,1:normal.,,*1,0
2318,1:normal.,1:normal.,,*1,0
2319,1:normal.,1:normal.,,*1,0
2320,1:normal.,1:normal.,,*1,0
2321,1:normal.,1:normal.,,*0.998,0.002
2322,1:normal.,1:normal.,,*1,0
2323,1:normal.,1:normal.,,*1,0
2324,1:normal.,1:normal.,,*1,0
2325,1:normal.,1:normal.,,*1,0
2326,1:normal.,1:normal.,,*0.998,0.002
2327,1:normal.,1:normal.,,*1,0
2328,1:normal.,1:normal.,,*1,0
2329,1:normal.,1:normal.,,*0.998,0.002
2330,1:normal.,1:normal.,,*1,0
2331,1:normal.,1:normal.,,*0.998,0.002
2332,1:normal.,1:normal.,,*1,0
2333,1:normal.,1:normal.,,*1,0
2334,1:normal.,1:normal.,,*1,0
2335,1:normal.,1:normal.,,*1,0
2336,1:normal.,1:normal.,,*1,0
2337,1:normal.,1:normal.,,*1,0
2338,1:normal.,1:normal.,,*1,0
2339,1:normal.,1:normal.,,*1,0
2340,1:normal.,1:normal.,,*1,0
2341,1:normal.,1:normal.,,*1,0
2342,1:normal.,1:normal.,,*1,0
2343,1:normal.,1:normal.,,*0.998,0.002
2344,1:normal.,1:normal.,,*1,0
2345,1:normal.,1:normal.,,*1,0
2346,1:normal.,1:normal.,,*1,0
2347,1:normal.,1:normal.,,*1,0
2348,1:normal.,1:normal.,,*1,0
2349,1:normal.,1:normal.,,*1,0
2350,1:normal.,1:normal.,,*1,0
2351,1:normal.,1:normal.,,*1,0
2352,1:normal.,1:normal.,,*1,0
2353,1:normal.,1:normal.,,*1,0
2354,1:normal.,1:normal.,,*1,0
2355,1:normal.,1:normal.,,*1,0
2356,1:normal.,1:normal.,,*1,0
2357,1:normal.,1:normal.,,*1,0
2358,1:normal.,1:normal.,,*1,0
2359,1:normal.,1:normal.,,*1,0
2360,1:normal.,1:normal.,,*1,0
2361,1:normal.,1:normal.,,*1,0
2362,1:normal.,1:normal.,,*1,0
2363,1:normal.,1:normal.,,*1,0
2364,1:normal.,1:normal.,,*1,0
2365,1:normal.,1:normal.,,*1,0
2366,1:normal.,1:normal.,,*0.998,0.002
2367,1:normal.,1:normal.,,*1,0
2368,1:normal.,1:normal.,,*0.998,0.002
2369,1:normal.,1:normal.,,*1,0
2370,1:normal.,1:normal.,,*0.998,0.002
2371,1:normal.,1:normal.,,*1,0
2372,1:normal.,1:normal.,,*1,0
2373,1:normal.,1:normal.,,*1,0
2374,1:normal.,1:normal.,,*1,0
2375,1:normal.,1:normal.,,*1,0
2376,1:normal.,1:normal.,,*1,0
2377,1:normal.,1:normal.,,*1,0
2378,1:normal.,1:normal.,,*1,0
2379,1:normal.,1:normal.,,*1,0
2380,1:normal.,1:normal.,,*0.998,0.002
2381,1:normal.,1:normal.,,*1,0
2382,1:normal.,1:normal.,,*1,0
2383,1:normal.,1:normal.,,*1,0
2384,1:normal.,1:normal.,,*1,0
2385,1:normal.,1:normal.,,*1,0
2386,1:normal.,1:normal.,,*1,0
2387,1:normal.,1:normal.,,*1,0
2388,1:normal.,1:normal.,,*1,0
2389,1:normal.,1:normal.,,*1,0
2390,1:normal.,1:normal.,,*1,0
2391,1:normal.,1:normal.,,*0.998,0.002
2392,1:normal.,1:normal.,,*1,0
2393,1:normal.,1:normal.,,*1,0
2394,1:normal.,1:normal.,,*1,0
2395,1:normal.,1:normal.,,*1,0
2396,1:normal.,1:normal.,,*1,0
2397,1:normal.,1:normal.,,*1,0
2398,1:normal.,1:normal.,,*1,0
2399,1:normal.,1:normal.,,*1,0
2400,1:normal.,1:normal.,,*1,0
2401,1:normal.,1:normal.,,*1,0
2402,1:normal.,1:normal.,,*1,0
2403,1:normal.,1:normal.,,*1,0
2404,1:normal.,1:normal.,,*1,0
2405,1:normal.,1:normal.,,*1,0
2406,1:normal.,1:normal.,,*1,0
2407,1:normal.,1:normal.,,*1,0
2408,1:normal.,1:normal.,,*1,0
2409,1:normal.,1:normal.,,*1,0
2410,1:normal.,1:normal.,,*1,0
2411,1:normal.,1:normal.,,*1,0
2412,1:normal.,1:normal.,,*1,0
2413,1:normal.,1:normal.,,*0.998,0.002
2414,1:normal.,1:normal.,,*1,0
2415,1:normal.,1:normal.,,*1,0
2416,1:normal.,1:normal.,,*1,0
2417,1:normal.,1:normal.,,*1,0
2418,1:normal.,1:normal.,,*1,0
2419,1:normal.,1:normal.,,*1,0
2420,1:normal.,1:normal.,,*0.998,0.002
2421,1:normal.,1:normal.,,*1,0
2422,1:normal.,1:normal.,,*1,0
2423,1:normal.,1:normal.,,*1,0
2424,1:normal.,1:normal.,,*1,0
2425,1:normal.,1:normal.,,*1,0
2426,1:normal.,1:normal.,,*1,0
2427,1:normal.,1:normal.,,*0.998,0.002
2428,1:normal.,1:normal.,,*1,0
2429,1:normal.,1:normal.,,*0.997,0.003
2430,1:normal.,1:normal.,,*1,0
2431,1:normal.,1:normal.,,*0.997,0.003
2432,1:normal.,1:normal.,,*1,0
2433,1:normal.,1:normal.,,*1,0
2434,1:normal.,1:normal.,,*1,0
2435,1:normal.,1:normal.,,*1,0
2436,1:normal.,1:normal.,,*1,0
2437,1:normal.,1:normal.,,*1,0
2438,1:normal.,1:normal.,,*1,0
2439,1:normal.,1:normal.,,*1,0
2440,1:normal.,1:normal.,,*1,0
2441,1:normal.,1:normal.,,*1,0
2442,1:normal.,1:normal.,,*1,0
2443,1:normal.,1:normal.,,*1,0
2444,1:normal.,1:normal.,,*1,0
2445,1:normal.,1:normal.,,*1,0
2446,1:normal.,1:normal.,,*1,0
2447,1:normal.,1:normal.,,*1,0
2448,1:normal.,1:normal.,,*1,0
2449,1:normal.,1:normal.,,*0.998,0.002
2450,1:normal.,1:normal.,,*1,0
2451,1:normal.,1:normal.,,*1,0
2452,1:normal.,1:normal.,,*1,0
2453,1:normal.,1:normal.,,*1,0
2454,1:normal.,1:normal.,,*1,0
2455,1:normal.,1:normal.,,*1,0
2456,1:normal.,1:normal.,,*1,0
2457,1:normal.,1:normal.,,*0.998,0.002
2458,1:normal.,1:normal.,,*0.998,0.002
2459,1:normal.,1:normal.,,*1,0
2460,1:normal.,1:normal.,,*0.998,0.002
2461,1:normal.,1:normal.,,*1,0
2462,1:normal.,1:normal.,,*1,0
2463,1:normal.,1:normal.,,*1,0
2464,1:normal.,1:normal.,,*1,0
2465,1:normal.,1:normal.,,*1,0
2466,1:normal.,1:normal.,,*1,0
2467,1:normal.,1:normal.,,*1,0
2468,1:normal.,1:normal.,,*1,0
2469,1:normal.,1:normal.,,*1,0
2470,1:normal.,1:normal.,,*1,0
2471,1:normal.,1:normal.,,*1,0
2472,1:normal.,1:normal.,,*1,0
2473,1:normal.,1:normal.,,*1,0
2474,1:normal.,1:normal.,,*1,0
2475,1:normal.,1:normal.,,*1,0
2476,1:normal.,1:normal.,,*0.998,0.002
2477,1:normal.,1:normal.,,*1,0
2478,1:normal.,1:normal.,,*1,0
2479,1:normal.,1:normal.,,*1,0
2480,1:normal.,1:normal.,,*1,0
2481,1:normal.,1:normal.,,*0.997,0.003
2482,1:normal.,1:normal.,,*1,0
2483,1:normal.,1:normal.,,*0.998,0.002
2484,1:normal.,1:normal.,,*1,0
2485,1:normal.,1:normal.,,*1,0
2486,1:normal.,1:normal.,,*0.998,0.002
2487,1:normal.,1:normal.,,*0.997,0.003
2488,1:normal.,1:normal.,,*1,0
2489,1:normal.,1:normal.,,*1,0
2490,1:normal.,1:normal.,,*1,0
2491,1:normal.,1:normal.,,*1,0
2492,1:normal.,1:normal.,,*1,0
2493,1:normal.,1:normal.,,*1,0
2494,1:normal.,1:normal.,,*1,0
2495,1:normal.,1:normal.,,*1,0
2496,1:normal.,1:normal.,,*0.998,0.002
2497,1:normal.,1:normal.,,*1,0
2498,1:normal.,1:normal.,,*1,0
2499,1:normal.,1:normal.,,*0.998,0.002
2500,1:normal.,1:normal.,,*1,0
2501,1:normal.,1:normal.,,*1,0
2502,1:normal.,1:normal.,,*1,0
2503,1:normal.,1:normal.,,*1,0
2504,1:normal.,1:normal.,,*1,0
2505,1:normal.,1:normal.,,*1,0
2506,1:normal.,1:normal.,,*1,0
2507,1:normal.,1:normal.,,*1,0
2508,1:normal.,1:normal.,,*1,0
2509,1:normal.,1:normal.,,*1,0
2510,1:normal.,1:normal.,,*0.998,0.002
2511,1:normal.,1:normal.,,*0.998,0.002
2512,1:normal.,1:normal.,,*1,0
2513,1:normal.,1:normal.,,*1,0
2514,1:normal.,1:normal.,,*1,0
2515,1:normal.,1:normal.,,*1,0
2516,1:normal.,1:normal.,,*1,0
2517,1:normal.,1:normal.,,*1,0
2518,1:normal.,1:normal.,,*1,0
2519,1:normal.,1:normal.,,*1,0
2520,1:normal.,1:normal.,,*1,0
2521,1:normal.,1:normal.,,*0.998,0.002
2522,1:normal.,1:normal.,,*1,0
2523,1:normal.,1:normal.,,*1,0
2524,1:normal.,1:normal.,,*0.998,0.002
2525,1:normal.,1:normal.,,*1,0
2526,1:normal.,1:normal.,,*1,0
2527,1:normal.,1:normal.,,*1,0
2528,1:normal.,1:normal.,,*1,0
2529,1:normal.,1:normal.,,*1,0
2530,1:normal.,1:normal.,,*0.998,0.002
2531,1:normal.,1:normal.,,*1,0
2532,1:normal.,1:normal.,,*1,0
2533,1:normal.,1:normal.,,*1,0
2534,1:normal.,1:normal.,,*1,0
2535,1:normal.,1:normal.,,*1,0
2536,1:normal.,1:normal.,,*1,0
2537,1:normal.,1:normal.,,*1,0
2538,1:normal.,1:normal.,,*1,0
2539,1:normal.,1:normal.,,*1,0
2540,1:normal.,1:normal.,,*1,0
2541,1:normal.,1:normal.,,*0.998,0.002
2542,1:normal.,1:normal.,,*1,0
2543,1:normal.,1:normal.,,*1,0
2544,1:normal.,1:normal.,,*0.998,0.002
2545,1:normal.,1:normal.,,*1,0
2546,1:normal.,1:normal.,,*1,0
2547,1:normal.,1:normal.,,*0.998,0.002
2548,1:normal.,1:normal.,,*1,0
2549,1:normal.,1:normal.,,*1,0
2550,1:normal.,1:normal.,,*1,0
2551,1:normal.,1:normal.,,*1,0
2552,1:normal.,1:normal.,,*1,0
2553,1:normal.,1:normal.,,*1,0
2554,1:normal.,1:normal.,,*1,0
2555,1:normal.,1:normal.,,*1,0
2556,1:normal.,1:normal.,,*1,0
2557,1:normal.,1:normal.,,*1,0
2558,1:normal.,1:normal.,,*1,0
2559,1:normal.,1:normal.,,*0.998,0.002
2560,1:normal.,1:normal.,,*1,0
2561,1:normal.,1:normal.,,*1,0
2562,1:normal.,1:normal.,,*1,0
2563,1:normal.,1:normal.,,*1,0
2564,1:normal.,1:normal.,,*1,0
2565,1:normal.,1:normal.,,*1,0
2566,1:normal.,1:normal.,,*1,0
2567,1:normal.,1:normal.,,*1,0
2568,1:normal.,1:normal.,,*1,0
2569,1:normal.,1:normal.,,*0.998,0.002
2570,1:normal.,1:normal.,,*1,0
2571,1:normal.,1:normal.,,*1,0
2572,1:normal.,1:normal.,,*1,0
2573,1:normal.,1:normal.,,*0.998,0.002
2574,1:normal.,1:normal.,,*1,0
2575,1:normal.,1:normal.,,*1,0
2576,1:normal.,1:normal.,,*0.998,0.002
2577,1:normal.,1:normal.,,*1,0
2578,1:normal.,1:normal.,,*1,0
2579,1:normal.,1:normal.,,*1,0
2580,1:normal.,1:normal.,,*0.998,0.002
2581,1:normal.,1:normal.,,*0.998,0.002
2582,1:normal.,1:normal.,,*1,0
2583,1:normal.,1:normal.,,*1,0
2584,1:normal.,1:normal.,,*1,0
2585,1:normal.,1:normal.,,*1,0
2586,1:normal.,1:normal.,,*1,0
2587,1:normal.,1:normal.,,*1,0
2588,1:normal.,1:normal.,,*1,0
2589,1:normal.,1:normal.,,*0.998,0.002
2590,1:normal.,1:normal.,,*0.998,0.002
2591,1:normal.,1:normal.,,*1,0
2592,1:normal.,1:normal.,,*1,0
2593,1:normal.,1:normal.,,*1,0
2594,1:normal.,1:normal.,,*1,0
2595,1:normal.,1:normal.,,*1,0
2596,1:normal.,1:normal.,,*1,0
2597,1:normal.,1:normal.,,*1,0
2598,1:normal.,1:normal.,,*1,0
2599,1:normal.,1:normal.,,*1,0
2600,1:normal.,1:normal.,,*1,0
2601,1:normal.,1:normal.,,*1,0
2602,1:normal.,1:normal.,,*1,0
2603,1:normal.,1:normal.,,*1,0
2604,1:normal.,1:normal.,,*1,0
2605,1:normal.,1:normal.,,*0.998,0.002
2606,1:normal.,1:normal.,,*1,0
2607,1:normal.,1:normal.,,*1,0
2608,1:normal.,1:normal.,,*1,0
2609,1:normal.,1:normal.,,*1,0
2610,1:normal.,1:normal.,,*1,0
2611,1:normal.,1:normal.,,*1,0
2612,1:normal.,1:normal.,,*1,0
2613,1:normal.,1:normal.,,*1,0
2614,1:normal.,1:normal.,,*1,0
2615,1:normal.,1:normal.,,*1,0
2616,1:normal.,1:normal.,,*1,0
2617,1:normal.,1:normal.,,*1,0
2618,1:normal.,1:normal.,,*1,0
2619,1:normal.,1:normal.,,*1,0
2620,1:normal.,1:normal.,,*1,0
2621,1:normal.,1:normal.,,*1,0
2622,1:normal.,1:normal.,,*1,0
2623,1:normal.,1:normal.,,*1,0
2624,1:normal.,1:normal.,,*1,0
2625,1:normal.,1:normal.,,*1,0
2626,1:normal.,1:normal.,,*1,0
2627,1:normal.,1:normal.,,*1,0
2628,1:normal.,1:normal.,,*0.998,0.002
2629,1:normal.,1:normal.,,*1,0
2630,1:normal.,1:normal.,,*1,0
2631,1:normal.,1:normal.,,*0.998,0.002
2632,1:normal.,1:normal.,,*1,0
2633,1:normal.,1:normal.,,*1,0
2634,1:normal.,1:normal.,,*0.998,0.002
2635,1:normal.,1:normal.,,*1,0
2636,1:normal.,1:normal.,,*1,0
2637,1:normal.,1:normal.,,*1,0
2638,1:normal.,1:normal.,,*1,0
2639,1:normal.,1:normal.,,*1,0
2640,1:normal.,1:normal.,,*1,0
2641,1:normal.,1:normal.,,*1,0
2642,1:normal.,1:normal.,,*1,0
2643,1:normal.,1:normal.,,*1,0
2644,1:normal.,1:normal.,,*1,0
2645,1:normal.,1:normal.,,*1,0
2646,1:normal.,1:normal.,,*1,0
2647,1:normal.,1:normal.,,*1,0
2648,1:normal.,1:normal.,,*1,0
2649,1:normal.,1:normal.,,*1,0
2650,1:normal.,1:normal.,,*1,0
2651,1:normal.,1:normal.,,*1,0
2652,1:normal.,1:normal.,,*1,0
2653,1:normal.,1:normal.,,*1,0
2654,1:normal.,1:normal.,,*0.997,0.003
2655,1:normal.,1:normal.,,*1,0
2656,1:normal.,1:normal.,,*1,0
2657,1:normal.,1:normal.,,*1,0
2658,1:normal.,1:normal.,,*1,0
2659,1:normal.,1:normal.,,*1,0
2660,1:normal.,1:normal.,,*1,0
2661,1:normal.,1:normal.,,*1,0
2662,1:normal.,1:normal.,,*1,0
2663,1:normal.,1:normal.,,*1,0
2664,1:normal.,1:normal.,,*1,0
2665,1:normal.,1:normal.,,*1,0
2666,1:normal.,1:normal.,,*0.997,0.003
2667,1:normal.,1:normal.,,*1,0
2668,1:normal.,1:normal.,,*1,0
2669,1:normal.,1:normal.,,*1,0
2670,1:normal.,1:normal.,,*1,0
2671,1:normal.,1:normal.,,*1,0
2672,1:normal.,1:normal.,,*1,0
2673,1:normal.,1:normal.,,*1,0
2674,1:normal.,1:normal.,,*0.998,0.002
2675,1:normal.,1:normal.,,*1,0
2676,1:normal.,1:normal.,,*1,0
2677,1:normal.,1:normal.,,*1,0
2678,1:normal.,1:normal.,,*1,0
2679,1:normal.,1:normal.,,*1,0
2680,1:normal.,1:normal.,,*1,0
2681,1:normal.,1:normal.,,*1,0
2682,1:normal.,1:normal.,,*1,0
2683,1:normal.,1:normal.,,*1,0
2684,1:normal.,1:normal.,,*1,0
2685,1:normal.,1:normal.,,*1,0
2686,1:normal.,1:normal.,,*0.998,0.002
2687,1:normal.,1:normal.,,*1,0
2688,1:normal.,1:normal.,,*1,0
2689,1:normal.,1:normal.,,*1,0
2690,1:normal.,1:normal.,,*0.998,0.002
2691,1:normal.,1:normal.,,*1,0
2692,1:normal.,1:normal.,,*1,0
2693,1:normal.,1:normal.,,*1,0
2694,1:normal.,1:normal.,,*0.998,0.002
2695,1:normal.,1:normal.,,*1,0
2696,1:normal.,1:normal.,,*1,0
2697,1:normal.,1:normal.,,*1,0
2698,1:normal.,1:normal.,,*1,0
2699,1:normal.,1:normal.,,*1,0
2700,1:normal.,1:normal.,,*0.998,0.002
2701,1:normal.,1:normal.,,*1,0
2702,1:normal.,1:normal.,,*1,0
2703,1:normal.,1:normal.,,*1,0
2704,1:normal.,1:normal.,,*1,0
2705,1:normal.,1:normal.,,*1,0
2706,1:normal.,1:normal.,,*0.998,0.002
2707,1:normal.,1:normal.,,*0.998,0.002
2708,1:normal.,1:normal.,,*1,0
2709,1:normal.,1:normal.,,*1,0
2710,1:normal.,1:normal.,,*0.998,0.002
2711,1:normal.,1:normal.,,*0.998,0.002
2712,1:normal.,1:normal.,,*1,0
2713,1:normal.,1:normal.,,*1,0
2714,1:normal.,1:normal.,,*1,0
2715,1:normal.,1:normal.,,*0.998,0.002
2716,1:normal.,1:normal.,,*1,0
2717,1:normal.,1:normal.,,*1,0
2718,1:normal.,1:normal.,,*1,0
2719,1:normal.,1:normal.,,*1,0
2720,1:normal.,1:normal.,,*1,0
2721,1:normal.,1:normal.,,*1,0
2722,1:normal.,1:normal.,,*1,0
2723,1:normal.,1:normal.,,*1,0
2724,1:normal.,1:normal.,,*1,0
2725,1:normal.,1:normal.,,*1,0
2726,1:normal.,1:normal.,,*1,0
2727,1:normal.,1:normal.,,*1,0
2728,1:normal.,1:normal.,,*1,0
2729,1:normal.,1:normal.,,*1,0
2730,1:normal.,1:normal.,,*1,0
2731,1:normal.,1:normal.,,*1,0
2732,1:normal.,1:normal.,,*0.998,0.002
2733,1:normal.,1:normal.,,*1,0
2734,1:normal.,1:normal.,,*1,0
2735,1:normal.,1:normal.,,*1,0
2736,1:normal.,1:normal.,,*1,0
2737,1:normal.,1:normal.,,*1,0
2738,1:normal.,1:normal.,,*1,0
2739,1:normal.,1:normal.,,*1,0
2740,1:normal.,1:normal.,,*0.998,0.002
2741,1:normal.,1:normal.,,*1,0
2742,1:normal.,1:normal.,,*1,0
2743,1:normal.,1:normal.,,*1,0
2744,1:normal.,1:normal.,,*1,0
2745,1:normal.,1:normal.,,*0.998,0.002
2746,1:normal.,1:normal.,,*1,0
2747,1:normal.,1:normal.,,*1,0
2748,1:normal.,1:normal.,,*1,0
2749,1:normal.,1:normal.,,*1,0
2750,1:normal.,1:normal.,,*1,0
2751,1:normal.,1:normal.,,*1,0
2752,1:normal.,1:normal.,,*1,0
2753,1:normal.,1:normal.,,*1,0
2754,1:normal.,1:normal.,,*1,0
2755,1:normal.,1:normal.,,*1,0
2756,1:normal.,1:normal.,,*1,0
2757,1:normal.,1:normal.,,*1,0
2758,1:normal.,1:normal.,,*1,0
2759,1:normal.,1:normal.,,*1,0
2760,1:normal.,1:normal.,,*1,0
2761,1:normal.,1:normal.,,*1,0
2762,1:normal.,1:normal.,,*1,0
2763,1:normal.,1:normal.,,*0.998,0.002
2764,1:normal.,1:normal.,,*1,0
2765,1:normal.,1:normal.,,*0.998,0.002
2766,1:normal.,1:normal.,,*1,0
2767,1:normal.,1:normal.,,*1,0
2768,1:normal.,1:normal.,,*1,0
2769,1:normal.,1:normal.,,*1,0
2770,1:normal.,1:normal.,,*1,0
2771,1:normal.,1:normal.,,*0.998,0.002
2772,1:normal.,1:normal.,,*1,0
2773,1:normal.,1:normal.,,*1,0
2774,1:normal.,1:normal.,,*1,0
2775,1:normal.,1:normal.,,*1,0
2776,1:normal.,1:normal.,,*0.998,0.002
2777,1:normal.,1:normal.,,*1,0
2778,1:normal.,2:attack,+,0,*1
2779,1:normal.,1:normal.,,*1,0
2780,1:normal.,1:normal.,,*1,0
2781,1:normal.,1:normal.,,*1,0
2782,1:normal.,1:normal.,,*1,0
2783,1:normal.,1:normal.,,*1,0
2784,1:normal.,1:normal.,,*1,0
2785,1:normal.,1:normal.,,*1,0
2786,1:normal.,1:normal.,,*1,0
2787,1:normal.,1:normal.,,*1,0
2788,1:normal.,1:normal.,,*1,0
2789,1:normal.,1:normal.,,*1,0
2790,1:normal.,1:normal.,,*1,0
2791,1:normal.,1:normal.,,*1,0
2792,1:normal.,1:normal.,,*1,0
2793,1:normal.,1:normal.,,*1,0
2794,1:normal.,1:normal.,,*1,0
2795,1:normal.,1:normal.,,*1,0
2796,1:normal.,1:normal.,,*1,0
2797,1:normal.,1:normal.,,*1,0
2798,1:normal.,1:normal.,,*1,0
2799,1:normal.,1:normal.,,*1,0
2800,1:normal.,1:normal.,,*0.998,0.002
2801,1:normal.,1:normal.,,*1,0
2802,1:normal.,1:normal.,,*1,0
2803,1:normal.,1:normal.,,*1,0
2804,1:normal.,1:normal.,,*1,0
2805,1:normal.,1:normal.,,*1,0
2806,1:normal.,1:normal.,,*1,0
2807,1:normal.,1:normal.,,*1,0
2808,1:normal.,1:normal.,,*1,0
2809,1:normal.,1:normal.,,*1,0
2810,1:normal.,1:normal.,,*1,0
2811,1:normal.,1:normal.,,*0.998,0.002
2812,1:normal.,1:normal.,,*0.998,0.002
2813,1:normal.,1:normal.,,*1,0
2814,1:normal.,1:normal.,,*1,0
2815,1:normal.,1:normal.,,*1,0
2816,1:normal.,1:normal.,,*1,0
2817,1:normal.,1:normal.,,*0.998,0.002
2818,1:normal.,1:normal.,,*1,0
2819,1:normal.,1:normal.,,*1,0
2820,1:normal.,1:normal.,,*1,0
2821,1:normal.,1:normal.,,*1,0
2822,1:normal.,1:normal.,,*1,0
2823,1:normal.,1:normal.,,*1,0
2824,1:normal.,1:normal.,,*1,0
2825,1:normal.,1:normal.,,*0.998,0.002
2826,1:normal.,1:normal.,,*1,0
2827,1:normal.,1:normal.,,*1,0
2828,1:normal.,1:normal.,,*1,0
2829,1:normal.,1:normal.,,*1,0
2830,1:normal.,1:normal.,,*1,0
2831,1:normal.,1:normal.,,*1,0
2832,1:normal.,1:normal.,,*1,0
2833,1:normal.,1:normal.,,*1,0
2834,1:normal.,1:normal.,,*0.997,0.003
2835,1:normal.,1:normal.,,*1,0
2836,1:normal.,1:normal.,,*1,0
2837,1:normal.,1:normal.,,*1,0
2838,1:normal.,1:normal.,,*1,0
2839,1:normal.,1:normal.,,*1,0
2840,1:normal.,1:normal.,,*1,0
2841,1:normal.,1:normal.,,*1,0
2842,1:normal.,1:normal.,,*1,0
2843,1:normal.,1:normal.,,*0.998,0.002
2844,1:normal.,1:normal.,,*1,0
2845,1:normal.,1:normal.,,*1,0
2846,1:normal.,1:normal.,,*1,0
2847,1:normal.,1:normal.,,*0.998,0.002
2848,1:normal.,1:normal.,,*1,0
2849,1:normal.,1:normal.,,*1,0
2850,1:normal.,1:normal.,,*1,0
2851,1:normal.,1:normal.,,*1,0
2852,1:normal.,1:normal.,,*1,0
2853,1:normal.,1:normal.,,*1,0
2854,1:normal.,1:normal.,,*0.998,0.002
2855,1:normal.,1:normal.,,*1,0
2856,1:normal.,1:normal.,,*1,0
2857,1:normal.,1:normal.,,*1,0
2858,1:normal.,1:normal.,,*1,0
2859,1:normal.,1:normal.,,*1,0
2860,1:normal.,1:normal.,,*0.998,0.002
2861,1:normal.,1:normal.,,*1,0
2862,1:normal.,1:normal.,,*0.998,0.002
2863,1:normal.,1:normal.,,*0.998,0.002
2864,1:normal.,1:normal.,,*1,0
2865,1:normal.,1:normal.,,*1,0
2866,1:normal.,1:normal.,,*1,0
2867,1:normal.,1:normal.,,*1,0
2868,1:normal.,1:normal.,,*1,0
2869,1:normal.,1:normal.,,*1,0
2870,1:normal.,1:normal.,,*1,0
2871,1:normal.,1:normal.,,*1,0
2872,1:normal.,1:normal.,,*1,0
2873,1:normal.,1:normal.,,*1,0
2874,1:normal.,1:normal.,,*1,0
2875,1:normal.,1:normal.,,*1,0
2876,1:normal.,1:normal.,,*1,0
2877,1:normal.,1:normal.,,*1,0
2878,1:normal.,1:normal.,,*1,0
2879,1:normal.,1:normal.,,*0.998,0.002
2880,1:normal.,1:normal.,,*1,0
2881,1:normal.,1:normal.,,*0.998,0.002
2882,1:normal.,1:normal.,,*1,0
2883,1:normal.,1:normal.,,*1,0
2884,1:normal.,1:normal.,,*1,0
2885,1:normal.,1:normal.,,*1,0
2886,1:normal.,1:normal.,,*1,0
2887,1:normal.,1:normal.,,*1,0
2888,1:normal.,1:normal.,,*0.998,0.002
2889,1:normal.,1:normal.,,*1,0
2890,1:normal.,1:normal.,,*1,0
2891,1:normal.,1:normal.,,*1,0
2892,1:normal.,1:normal.,,*1,0
2893,1:normal.,1:normal.,,*1,0
2894,1:normal.,1:normal.,,*1,0
2895,1:normal.,1:normal.,,*0.998,0.002
2896,1:normal.,1:normal.,,*1,0
2897,1:normal.,1:normal.,,*1,0
2898,1:normal.,1:normal.,,*1,0
2899,1:normal.,1:normal.,,*1,0
2900,1:normal.,1:normal.,,*0.996,0.004
2901,1:normal.,1:normal.,,*1,0
2902,1:normal.,1:normal.,,*1,0
2903,1:normal.,1:normal.,,*1,0
2904,1:normal.,1:normal.,,*1,0
2905,1:normal.,1:normal.,,*0.998,0.002
2906,1:normal.,1:normal.,,*1,0
2907,1:normal.,1:normal.,,*1,0
2908,1:normal.,1:normal.,,*1,0
2909,1:normal.,1:normal.,,*1,0
2910,1:normal.,1:normal.,,*1,0
2911,1:normal.,1:normal.,,*1,0
2912,1:normal.,1:normal.,,*1,0
2913,1:normal.,1:normal.,,*1,0
2914,1:normal.,1:normal.,,*1,0
2915,1:normal.,1:normal.,,*1,0
2916,1:normal.,1:normal.,,*1,0
2917,1:normal.,1:normal.,,*1,0
2918,1:normal.,1:normal.,,*0.998,0.002
2919,1:normal.,1:normal.,,*1,0
2920,1:normal.,1:normal.,,*1,0
2921,1:normal.,1:normal.,,*1,0
2922,1:normal.,1:normal.,,*1,0
2923,1:normal.,1:normal.,,*1,0
2924,1:normal.,1:normal.,,*1,0
2925,1:normal.,1:normal.,,*1,0
2926,1:normal.,1:normal.,,*1,0
2927,1:normal.,1:normal.,,*1,0
2928,1:normal.,1:normal.,,*1,0
2929,1:normal.,1:normal.,,*1,0
2930,1:normal.,1:normal.,,*1,0
2931,1:normal.,1:normal.,,*1,0
2932,1:normal.,1:normal.,,*1,0
2933,1:normal.,1:normal.,,*1,0
2934,1:normal.,1:normal.,,*1,0
2935,1:normal.,1:normal.,,*1,0
2936,1:normal.,1:normal.,,*1,0
2937,1:normal.,1:normal.,,*1,0
2938,1:normal.,1:normal.,,*1,0
